<?xml version="1.0"?>
<opencv_storage>
<opencv_ml_svm>
  <format>3</format>
  <svmType>C_SVC</svmType>
  <kernel>
    <type>LINEAR</type></kernel>
  <C>1.</C>
  <term_criteria><iterations>100</iterations></term_criteria>
  <var_count>1920</var_count>
  <class_count>3</class_count>
  <class_labels type_id="opencv-matrix">
    <rows>3</rows>
    <cols>1</cols>
    <dt>i</dt>
    <data>
      0 1 2</data></class_labels>
  <sv_total>3</sv_total>
  <support_vectors>
    <_>
      -8.42819354e-05 6.37530757e-05 -1.43190875e-04 -1.27217179e-04
      9.37252116e-05 1.02961440e-05 -7.10188251e-05 -6.75763295e-05
      -1.23058344e-04 -2.82149504e-05 -7.60452967e-05 -2.42099050e-05
      1.50952721e-04 1.28420172e-04 -1.89285438e-05 -1.09179717e-04
      -5.46610754e-05 -6.74013427e-05 6.46870103e-05 6.18732656e-06
      4.76561181e-05 -6.94672490e-05 9.39070378e-06 -7.76141242e-05
      -2.16379540e-05 1.24959279e-05 -1.82962121e-05 -9.14260163e-05
      -2.15484717e-04 -8.05825912e-05 1.83717508e-04 7.01956160e-05
      5.04202508e-05 -1.39378244e-04 -8.28511256e-05 -1.96695109e-04
      -9.81177218e-05 -1.04025137e-04 1.29527734e-05 -7.15494461e-05
      5.37601336e-05 -9.97883035e-05 -1.65506935e-04 -3.74482152e-05
      9.23228290e-05 -7.69845701e-06 -1.14128918e-04 1.45309914e-05
      4.60414340e-05 5.20309404e-05 -5.33170059e-05 3.05634749e-05
      -1.35096911e-04 -9.67543601e-05 -1.34512738e-04 -8.69321866e-06
      1.14216400e-05 9.66803127e-05 -6.95647614e-05 4.46763406e-05
      8.15216408e-05 -1.08894237e-04 -3.76602256e-05 -2.80996901e-05
      -2.66051822e-04 -7.53807253e-05 -1.43816316e-04 -1.08897329e-04
      2.08915208e-05 -4.55541085e-05 -1.24839600e-04 -6.64804029e-05
      -1.62213255e-04 -1.68434417e-04 -3.33370480e-07 -2.39405446e-04
      -1.53144210e-04 -9.20399980e-05 2.03936142e-05 5.51896883e-05
      -8.78635547e-05 -1.34809990e-04 -2.38013905e-04 -1.14892959e-04
      5.44512113e-05 -6.06908907e-05 -4.43525932e-05 -6.77256176e-05
      -2.23612933e-05 -1.54437119e-04 -2.53175476e-05 -3.36604062e-05
      5.94313424e-05 -5.53596965e-06 3.57886456e-05 -8.59635838e-05
      -1.04588813e-04 -3.74308838e-05 -2.99193971e-06 2.69970187e-05
      -4.12425698e-06 -8.91764503e-05 -1.22124198e-04 -9.54723582e-05
      -2.48807104e-04 6.30935683e-05 -4.89129088e-05 -5.32903141e-05
      -2.44512688e-04 -5.88694493e-05 -3.71500246e-05 -2.88343756e-04
      4.21713557e-05 -2.95866794e-05 -5.12421939e-05 -2.77483614e-05
      -1.52466775e-04 -3.41837906e-04 -1.95483692e-04 5.50519399e-05
      8.03332150e-05 -5.96609425e-05 1.29914615e-05 -5.39960747e-05
      -9.77592281e-05 -1.33065914e-04 -1.60567506e-04 -1.59055380e-05
      1.13263477e-05 3.09980460e-05 -5.59253931e-05 5.78893596e-05
      2.77772233e-05 -5.14608655e-05 9.52774553e-06 6.31818621e-05
      5.62584464e-05 1.04865750e-04 -3.99347336e-05 1.06915017e-04
      1.01661535e-04 6.72846800e-05 -1.28965157e-05 7.57058078e-05
      5.02709809e-05 3.24333269e-05 1.19668957e-05 -4.56922608e-05
      9.14621996e-05 -8.52140772e-07 -2.84110720e-05 -6.70622831e-05
      4.77573049e-05 1.23243672e-05 -4.53272769e-05 -1.07829092e-05
      -8.94762979e-06 9.79194665e-05 -3.21782281e-05 4.26798215e-05
      7.92420396e-05 1.84814096e-04 4.22841586e-05 -1.44442529e-05
      9.18634396e-05 8.62680736e-06 1.39560616e-05 -6.79704535e-05
      1.65991587e-04 4.80398339e-05 -5.98478509e-05 -8.50717988e-05
      1.00472498e-04 1.13164961e-05 -2.86952272e-05 -8.77719503e-05
      -2.37106960e-05 7.11044413e-05 -5.08469093e-05 -2.33726278e-05
      4.76012683e-05 7.40510295e-05 5.74167534e-05 7.37078153e-05
      6.42049999e-05 3.37239435e-05 -1.10295601e-04 -1.21858451e-04
      6.81961901e-05 1.28061700e-04 6.27595728e-05 2.26001412e-05
      8.76744671e-05 3.59917103e-05 3.07436894e-05 6.26379697e-05
      4.17034498e-05 4.97452565e-05 -2.39775090e-05 7.58633541e-05
      -1.00036423e-05 -6.05394562e-05 2.85276037e-05 9.22142353e-05
      9.60244724e-05 -7.26350045e-05 -2.68569984e-05 -1.53151359e-05
      -3.98084012e-05 -2.04663102e-05 5.86791903e-05 -3.60767149e-06
      3.72054019e-05 6.77214848e-05 6.68686116e-05 3.21910484e-05
      -2.40571717e-05 4.47602724e-05 1.49861889e-05 5.75414742e-05
      1.06419639e-05 1.32285350e-04 -3.56223936e-05 5.52796018e-06
      -9.45446482e-06 2.17844809e-05 3.76594508e-05 -3.23141176e-05
      1.33122167e-05 1.83406992e-05 -6.19591228e-05 -4.56761736e-05
      -5.55588813e-05 3.92304050e-10 1.39519354e-04 4.31812186e-05
      3.31122806e-06 6.48730929e-05 -9.36385732e-06 3.62186584e-05
      9.88080064e-05 -8.36535855e-06 2.29739217e-05 -5.75975246e-05
      -5.11687285e-05 -4.44595826e-05 7.09289088e-05 5.41105765e-05
      9.71958652e-05 -2.01591065e-05 -8.22265647e-05 -4.88596634e-05
      -9.39568126e-05 3.38113168e-05 7.44126082e-05 -1.10889225e-04
      4.81620991e-05 -3.73802577e-05 -8.95275025e-06 4.01676971e-06
      2.10674243e-05 6.80978628e-05 -2.01230378e-05 2.69224147e-05
      -7.08799926e-05 1.24974931e-05 3.94234121e-05 -6.51581740e-06
      -2.21815444e-05 -1.07922591e-04 -2.00022314e-05 -7.70620463e-05
      1.46130815e-05 6.15253739e-05 -3.95158022e-05 1.41896217e-05
      -6.13004522e-05 6.97789510e-05 -5.65757873e-05 1.58921575e-05
      2.64446917e-05 5.86868046e-05 4.75808920e-05 1.64507961e-04
      3.51290691e-05 -4.51858505e-05 -8.13303996e-05 -7.05038110e-05
      -3.40221522e-05 1.10292101e-04 6.05615714e-05 2.28634563e-05
      1.71530464e-05 1.13623726e-04 -4.37118651e-05 1.50777942e-05
      8.36363761e-05 -7.34557689e-05 -5.38347967e-06 -6.84080878e-05
      -1.43580673e-05 1.18616023e-04 -3.14824429e-05 -4.56384805e-05
      3.36182056e-05 9.11318421e-06 -2.51518159e-05 8.77883576e-05
      2.83043646e-05 1.79431402e-06 -2.49990117e-05 -8.43216476e-05
      -5.73151046e-05 -1.59783576e-05 1.57129893e-04 -8.51216828e-06
      -4.13692687e-05 8.43852977e-05 1.08889079e-04 2.58457057e-05
      -1.25012684e-05 4.37579092e-06 1.25374463e-05 5.35964755e-05
      3.33900098e-05 5.78417203e-05 -1.05223553e-05 -1.87092992e-05
      -4.22266239e-05 4.09699642e-05 5.54916960e-06 3.35912082e-05
      -3.61895691e-05 -2.68979747e-05 -6.18248523e-05 9.17568759e-05
      6.15056415e-05 2.73204478e-05 -1.11660775e-04 -1.07922009e-04
      1.36881054e-05 -1.29491773e-05 -4.81863435e-06 6.50239526e-05
      1.65327911e-05 -4.05209503e-05 5.98086590e-05 3.42906947e-06
      -2.51558740e-05 7.59705290e-05 1.40167776e-05 2.13820276e-05
      -1.08974709e-04 9.86894956e-05 -6.42372697e-06 7.96368840e-05
      3.73696166e-05 2.05738324e-05 -5.36300686e-05 -5.23926137e-05
      -8.67080525e-05 -6.62435050e-05 5.32286431e-05 3.93683185e-05
      4.72286683e-06 4.49163708e-05 5.36452862e-05 -2.47650933e-05
      1.05613653e-04 -4.61749332e-05 -1.15220055e-05 -5.90992931e-05
      3.86565298e-05 -2.77016807e-05 -4.69905863e-05 1.14447203e-05
      1.13700829e-04 1.86827492e-05 8.87181795e-06 1.19665119e-05
      3.53399191e-05 3.20721701e-05 6.61613667e-05 2.26766933e-05
      -4.18175296e-05 1.14843060e-04 8.25575262e-05 -8.48626514e-05
      2.73011374e-05 4.07410662e-05 6.49070134e-05 1.07916341e-04
      1.03422492e-04 -1.60767740e-05 -3.75237796e-05 1.52592793e-06
      -4.09720160e-05 -1.04277933e-04 -9.80092518e-05 1.21310644e-04
      8.76305421e-05 1.01658334e-04 7.51799016e-05 -4.84232733e-05
      5.02257353e-05 1.08443477e-04 -5.59176224e-05 -4.40635085e-05
      4.13510179e-06 -3.51591771e-05 4.19835014e-05 6.21106519e-05
      9.01926469e-05 2.87955245e-05 7.92902865e-05 -7.01693789e-05
      -2.01970652e-05 -7.07234867e-05 -3.41530431e-05 1.22552756e-05
      -4.71179665e-05 -3.88625413e-05 7.53658969e-05 -2.36827127e-05
      -1.91773347e-06 -5.97931830e-05 3.27535736e-06 -9.10196613e-05
      -9.55756914e-05 3.39628386e-05 -8.26242322e-05 2.86361392e-05
      5.34754618e-05 6.16890829e-05 1.77464826e-04 9.15586206e-05
      -3.85009298e-05 1.50184342e-05 1.44784417e-05 1.71156589e-05
      -5.08630910e-05 2.40764766e-05 6.02714754e-05 -1.25713705e-04
      4.48086721e-05 4.96546090e-05 -3.69497102e-05 -3.30604635e-05
      -2.70115706e-05 -6.08443297e-05 2.72363650e-05 3.79748053e-05
      3.56272249e-05 -3.51216695e-05 -2.96106521e-07 -1.21003060e-04
      -2.40450117e-05 -5.49979159e-05 -2.43746217e-06 5.71904493e-05
      4.99594862e-05 -6.94452274e-06 -1.01479418e-04 -5.42270645e-05
      -5.11500075e-05 -5.38502172e-05 -9.93334397e-05 -8.37551270e-05
      -1.07187065e-04 -9.87735184e-05 -1.45593163e-04 -4.54423025e-05
      7.01599492e-05 -6.87235661e-05 -4.30947730e-05 -2.40045574e-06
      -4.29146348e-05 7.76971792e-05 4.14381975e-06 -4.61745258e-05
      7.73354914e-05 2.36688684e-05 -3.94632007e-05 1.56540591e-05
      3.58841353e-05 4.71072453e-05 -6.79420773e-05 -1.04614264e-04
      4.64776494e-05 -4.97270812e-05 -1.42598830e-04 -4.89235390e-05
      1.34139627e-04 2.84271409e-05 -9.88937359e-07 1.86531051e-05
      -2.44288458e-05 6.24662644e-05 1.28700058e-05 4.04060083e-05
      -1.79241106e-05 -4.90817692e-05 8.43304515e-05 5.11772778e-05
      1.71627307e-05 5.61419802e-05 9.59127428e-05 -1.85861300e-05
      2.33270130e-05 -8.11111458e-05 -5.28488927e-05 -1.89655068e-04
      -9.60138859e-05 1.73537410e-05 4.48255150e-06 2.29967804e-06
      5.51811463e-05 -4.56774651e-05 -6.46097978e-05 -9.37917648e-05
      -3.71335445e-05 -2.19339690e-05 -6.02310356e-05 6.22799271e-05
      -1.84457040e-05 1.02155522e-04 -6.30798468e-06 -7.89287515e-05
      -6.63449900e-05 -4.63977885e-05 2.52527279e-05 -5.06174438e-05
      -1.06050602e-05 -6.68147768e-05 -4.21194345e-05 -4.25545877e-05
      -1.93590222e-05 5.68144314e-05 6.09219605e-05 4.77193316e-05
      7.95506348e-05 -7.24269557e-05 6.28648559e-05 2.70814580e-05
      5.73255693e-06 4.33434070e-05 2.98986561e-05 -3.59537880e-05
      -2.21961704e-06 -1.31526231e-05 1.37532641e-06 5.87308496e-05
      6.71974194e-05 1.03270584e-04 1.24502505e-04 -2.74441413e-06
      9.08879010e-05 9.04513872e-05 6.85949053e-05 4.90272650e-05
      -4.37088092e-05 5.66754352e-05 1.14949667e-04 6.96791467e-05
      4.75430788e-05 2.25695141e-04 9.04434346e-05 1.14192138e-04
      -2.63299717e-05 -5.92574434e-05 -1.07486212e-05 -1.09079068e-04
      1.01180492e-04 1.15444847e-04 -9.98756695e-06 -4.02317601e-05
      -7.51393745e-05 -1.13443202e-04 2.57796091e-05 -9.94308139e-05
      -7.22225595e-05 2.47282642e-05 -1.88989616e-05 -4.91647406e-05
      3.53290998e-05 -6.96203351e-05 -6.51583923e-06 -4.12586851e-05
      -9.45985012e-05 -6.17762635e-05 -1.08256812e-04 1.90326955e-05
      -9.27375083e-07 -4.90714810e-05 -1.84649907e-05 5.39409411e-05
      -1.86323759e-05 -3.96553805e-05 3.28622009e-05 4.45548721e-05
      1.58680978e-05 -8.44575552e-05 -4.03066442e-05 -7.14481121e-06
      -2.09530499e-05 1.31851721e-05 4.67547288e-05 2.83340196e-05
      5.91852840e-05 -3.72486902e-05 2.22416675e-05 5.41439949e-05
      8.05699892e-05 1.57750364e-05 6.39568179e-06 -1.52688187e-06
      -1.31449751e-05 1.15668838e-04 4.27785344e-05 2.68327440e-05
      -4.31179615e-05 -4.24953032e-06 5.91975404e-05 7.90247359e-05
      2.13763033e-05 2.40560021e-05 1.44667923e-04 1.82665844e-05
      -3.85487765e-05 -7.11921093e-05 3.89348243e-05 -1.86117959e-05
      4.78683469e-05 -1.26480474e-04 -2.62197113e-06 -1.60016047e-04
      -1.27903531e-05 -3.93662121e-05 1.49219404e-05 1.38085461e-05
      -3.97566255e-05 -1.36705959e-04 -2.18730042e-06 -1.60289965e-05
      -1.34174306e-05 -8.54882910e-06 -3.72251088e-05 -8.66265837e-05
      -3.38639438e-05 -1.52807115e-04 3.65140932e-06 4.05909013e-05
      -4.44289253e-05 -1.97951631e-05 -7.63961907e-06 3.06732254e-05
      -6.51561277e-05 -4.33099267e-05 -1.56311115e-04 6.38853962e-05
      9.88065221e-05 7.23513658e-05 2.92325694e-05 -3.73487433e-06
      1.89633611e-05 -4.42122582e-05 -2.35452080e-05 -6.09096060e-05
      -6.94059418e-06 5.22296541e-05 6.44994216e-05 2.02499778e-05
      -5.54545913e-05 -5.75847371e-05 2.03260497e-05 4.17717965e-05
      -5.19323180e-07 3.73045550e-05 -8.34853709e-05 -2.00683530e-06
      -7.82881107e-05 -9.00874365e-05 -1.57559534e-05 -2.24569194e-05
      -1.84797518e-05 -2.38919692e-05 1.12222646e-04 1.54484384e-04
      5.87166426e-07 4.35489892e-06 5.71714850e-07 -6.86553267e-06
      2.92385030e-05 1.55480520e-04 2.06163131e-05 -1.98971738e-05
      1.00027188e-04 -8.22945512e-05 2.64108185e-05 1.30521934e-04
      2.70514124e-06 -4.89111844e-05 -3.82444450e-05 -3.80004494e-05
      -9.23249099e-05 9.02517713e-05 4.45003134e-05 1.35268319e-05
      8.44509213e-06 5.28210148e-05 -4.83695476e-05 -2.71003428e-05
      -6.19166894e-05 -1.95048371e-04 -7.57257803e-05 2.18646255e-05
      2.76096725e-05 -2.57266875e-05 -4.44978377e-06 -2.58420605e-05
      -5.36302578e-05 -3.81890095e-05 -3.56198052e-06 -6.33994787e-05
      9.75384755e-05 4.94581309e-06 -9.98649848e-05 -7.57764064e-05
      8.24800663e-05 2.27120290e-05 1.79872802e-06 -3.31419287e-05
      -5.24940242e-06 -6.40957614e-06 -3.45819790e-05 2.65620238e-05
      -3.65413325e-06 2.89806194e-05 5.92459801e-05 9.95680239e-06
      4.48726933e-05 -2.52058544e-05 3.30061957e-05 2.60011802e-05
      7.28427258e-05 6.95374911e-05 1.31941371e-04 2.62044086e-05
      4.35440052e-05 -7.96159147e-05 -9.71675545e-05 7.62327036e-05
      6.56990669e-05 1.15833223e-04 1.17974523e-04 7.20712051e-05
      -4.30469227e-05 8.81492524e-05 1.01264246e-04 -1.00135483e-04
      -6.48094574e-05 -7.26071230e-05 2.83995541e-05 9.16819845e-05
      -6.10271454e-05 -2.09790142e-05 -3.46038469e-05 -6.53700627e-05
      7.45865764e-05 7.15171482e-05 2.79290998e-05 1.63561181e-05
      2.74330541e-05 5.22161872e-06 -1.03710758e-04 3.86673637e-05
      4.91981227e-05 -9.13610565e-05 -2.14919382e-05 8.01255737e-05
      7.20624885e-05 1.28196962e-05 3.00315842e-05 3.40772604e-05
      -2.69673492e-05 6.08721894e-05 1.04808460e-05 -7.30924239e-06
      -1.61382704e-05 1.97298541e-05 -5.34561077e-05 -8.19828783e-05
      -1.09779621e-05 2.48207980e-05 2.14419379e-05 4.62097669e-05
      -1.60699667e-04 1.41565979e-04 5.34501305e-05 4.93566258e-05
      1.61765329e-05 -1.88103750e-05 5.75150516e-05 7.85162702e-05
      1.83025797e-04 4.30039981e-05 2.54054739e-05 4.44874095e-05
      9.30748574e-05 5.25011710e-05 1.82058633e-04 7.05621496e-05
      1.08903121e-04 -4.08635970e-05 -3.85907733e-05 -7.16041905e-05
      4.51471715e-05 1.36161194e-04 4.65440189e-06 -1.25664483e-05
      2.46390027e-05 -6.91797759e-05 7.65551813e-05 1.42150939e-05
      5.91822973e-05 4.83527110e-05 3.37314414e-05 -8.82880704e-05
      -7.08846055e-05 5.81523273e-05 -4.07749985e-06 -8.21985523e-05
      7.08920124e-05 7.84443400e-05 2.13558155e-06 -6.69879446e-05
      -3.87856162e-05 -4.87954276e-05 8.11175141e-06 -4.19004900e-05
      -5.94662451e-05 -2.25646818e-05 -7.58244496e-05 -1.55682465e-05
      8.16871670e-06 -4.83648146e-05 8.48645323e-06 -1.34696980e-04
      -3.59740102e-06 -4.74327098e-05 -8.96977799e-05 3.51054150e-05
      5.60678345e-05 9.34788259e-05 5.81698223e-05 -7.29335125e-06
      4.86563877e-05 3.24585635e-05 -1.70432195e-05 -2.02509636e-05
      1.29359869e-05 3.81290047e-05 1.00178386e-05 2.76711417e-05
      5.78956533e-05 -7.94361858e-06 2.35493771e-05 1.51453814e-05
      7.29497697e-05 2.35259558e-05 -4.95406093e-05 -1.66683858e-05
      6.97841324e-06 -1.23344180e-05 1.19623175e-04 -1.28752690e-05
      1.06780040e-04 1.41001001e-05 -3.36425292e-05 1.02395665e-04
      9.77751479e-05 1.47263572e-05 -3.15723155e-05 -5.61603811e-05
      3.21505540e-05 -9.57094744e-05 -6.18371632e-05 -8.44105671e-05
      -7.85111915e-05 2.18869791e-05 5.24736533e-05 6.50498623e-05
      -2.10198668e-05 6.53951356e-05 4.50738116e-05 -1.17706048e-04
      2.59266926e-05 -1.18021344e-05 8.32847654e-05 -3.63551080e-05
      -1.49763518e-05 -1.20981320e-04 -9.53340350e-05 6.98776546e-07
      -5.76227794e-05 7.31943601e-07 3.78789155e-05 2.30032056e-05
      -2.16096469e-05 -4.18477430e-06 -4.27440609e-05 4.07996813e-05
      -5.53970222e-06 7.01094723e-06 3.74722658e-05 1.10744899e-04
      -1.78138544e-05 1.01263911e-04 2.82279016e-05 1.32056548e-05
      1.50010761e-04 5.04685195e-05 -5.03406736e-05 -1.05340565e-04
      -1.01030091e-04 6.64592153e-06 4.87919388e-05 -4.06962063e-05
      -1.05128012e-04 -4.69843071e-05 -3.60919548e-05 -4.10605981e-06
      -1.64213663e-04 -3.82517865e-05 5.04918171e-05 1.59931515e-05
      -1.07507083e-04 -2.04140779e-05 1.07180764e-04 -8.53503298e-06
      -1.14755258e-05 -8.43020316e-05 -4.57553615e-05 -2.00158102e-04
      6.76141281e-05 -8.95800986e-05 -1.95693108e-04 -1.44837395e-04
      -1.67385897e-05 -5.28983946e-06 -9.41057879e-05 -3.04884816e-05
      -1.88548001e-05 -7.67671518e-05 -1.62324475e-04 3.11492840e-05
      -1.16576928e-04 -1.25115359e-04 -1.07213491e-05 3.30871917e-05
      1.18000380e-05 5.06272818e-06 -5.13545492e-05 -3.82316139e-05
      -3.04688710e-05 -1.15427800e-04 -7.34505738e-05 8.94947334e-06
      7.20475919e-06 5.41587178e-05 6.44280371e-05 -3.57377689e-06
      -2.41901871e-05 3.93183154e-06 -1.51989370e-05 6.47193292e-06
      -1.09579087e-05 1.93484157e-05 -4.10191969e-05 5.31375554e-05
      1.00546327e-04 4.35150214e-05 1.77944003e-05 -1.61792923e-05
      -1.54453082e-04 4.17279953e-05 8.03245493e-05 1.37461859e-04
      7.09526939e-05 1.26021128e-04 6.59316502e-05 -6.90314409e-05
      4.29407010e-06 6.91900277e-05 1.56394453e-05 -5.98203005e-05
      -1.11971960e-04 6.31892544e-05 6.17073019e-05 7.02620455e-05
      -1.35627636e-06 4.23489691e-05 3.03966863e-05 -8.58915446e-05
      -1.48051258e-04 -1.01763100e-04 -8.04686133e-05 6.94337141e-05
      -4.44436228e-06 2.41709245e-07 -4.29242064e-05 -6.40631288e-06
      3.46293309e-05 7.63987118e-05 -9.35609860e-05 -9.73591432e-06
      -5.90726449e-05 4.21860168e-05 5.04877644e-05 -1.07478945e-05
      -5.74796431e-05 6.17742189e-05 3.60032500e-05 -4.05030078e-05
      9.09400114e-05 2.52718000e-05 2.91226461e-05 2.41147391e-05
      -3.15010293e-05 -6.53517272e-05 -1.04020815e-04 -7.79473430e-06
      -5.53193895e-05 1.12882204e-04 7.14568596e-05 2.14539250e-05
      -1.97104491e-05 -5.17624067e-05 -8.67531617e-06 -2.09626778e-05
      2.11222118e-06 1.84303917e-05 3.25881024e-06 8.61723311e-05
      -4.52624445e-05 7.12181572e-05 -6.08959635e-05 -5.89843621e-05
      -1.08793965e-05 2.50715893e-05 -3.94139590e-07 9.68610548e-05
      -6.77883179e-07 8.09774356e-05 -1.94096301e-05 -6.23210799e-05
      -1.39983586e-05 2.55388259e-05 -7.89608093e-05 -3.99885430e-05
      -3.37031342e-05 9.13498880e-05 1.82451204e-05 4.26634724e-05
      2.13177009e-05 -6.58068093e-05 2.65763356e-05 -1.24968981e-04
      -1.84078963e-05 -6.22945590e-05 -1.23044563e-04 -9.80004625e-05
      -3.91408366e-06 3.18418060e-05 -6.61740924e-05 -4.20670694e-05
      7.32980916e-05 5.43928036e-05 1.33788135e-05 2.87751227e-05
      -5.91809185e-05 1.27094827e-04 -5.24187199e-05 -6.40500220e-05
      -1.18415046e-04 5.60632216e-05 -3.37634483e-05 -7.94391381e-05
      1.27972507e-05 -4.70703162e-05 -1.72932723e-05 -1.09512395e-04
      2.08188758e-05 8.37035841e-05 5.60966291e-05 -3.05451576e-05
      -1.14338378e-04 -6.02276814e-05 -1.46230277e-05 -1.25511651e-04
      -1.05237214e-05 -4.87904254e-05 1.72020809e-05 8.05080635e-05
      4.27614723e-05 -9.66791595e-06 -9.46739528e-05 -8.78452120e-05
      4.16286057e-05 -8.36979889e-05 3.99522869e-05 -8.04291903e-06
      -4.86444260e-05 -5.09277197e-05 -2.32616349e-05 -3.38501522e-05
      -6.10482457e-05 -4.21154109e-05 -4.54924084e-05 -1.66011268e-05
      -5.79728803e-05 1.09922366e-04 8.67462950e-05 1.88548540e-04
      5.86280803e-05 1.29937864e-04 -1.39682279e-05 -6.84359547e-05
      -1.23339079e-04 -1.19179960e-04 -9.08361399e-05 -1.34545126e-05
      -1.01899939e-04 -7.57050366e-05 -9.48538654e-05 8.41756919e-05
      -5.09069032e-05 -8.16452448e-05 4.60022420e-05 3.25525398e-05
      7.71354316e-05 1.88051545e-05 -6.10214956e-05 -3.51570998e-05
      -2.25050790e-05 -1.71115080e-05 -4.38432580e-05 -8.31016587e-05
      -2.43842733e-05 1.77326383e-05 -2.60231827e-05 -1.77089587e-05
      1.77790935e-05 6.77758908e-06 7.91429775e-05 -1.16022989e-06
      -1.03788218e-04 -1.28659842e-04 -2.60220968e-05 -2.42694987e-05
      2.69298034e-05 8.32913211e-05 -3.03307133e-05 6.33733289e-05
      -6.37166886e-05 -4.85754936e-05 -4.00914105e-05 1.53597241e-04
      7.58810938e-06 2.26892535e-05 6.65136713e-06 -1.13459055e-05
      -7.01952595e-05 -9.76868469e-05 -1.46256803e-04 3.76599331e-07
      -7.59929208e-06 -3.28273600e-05 -5.71641503e-05 2.71028130e-05
      1.36057106e-05 6.35237884e-05 -3.47567002e-05 -6.02204345e-05
      -3.15057690e-07 3.66688946e-05 -4.19714816e-05 1.49250423e-06
      -3.53138348e-05 9.85453516e-05 4.72096253e-05 -1.03421968e-04
      9.30713722e-05 2.89536165e-05 -4.52613749e-05 -5.95212114e-05
      4.78006332e-05 -7.40735486e-05 -2.29644938e-04 -8.56681436e-05
      1.33696900e-04 -2.13744261e-05 -4.41009688e-05 -3.67980033e-06
      -3.64773696e-05 -6.12984004e-05 3.71170927e-06 1.36453207e-04
      1.47277649e-04 5.98105325e-05 -3.02299704e-05 -8.60558430e-05
      -1.36900388e-04 3.08682297e-06 -4.86386853e-05 -1.21874116e-04
      1.18680136e-05 -8.84227993e-05 3.83747283e-05 -3.14012505e-05
      3.47689893e-05 -3.51729577e-05 -7.65680795e-07 -1.86662396e-06
      -4.26271217e-05 -4.57871756e-05 4.32447496e-06 -1.52026887e-05
      3.91860158e-06 -8.25085226e-05 -7.43241908e-05 -1.32031646e-05
      -6.09870003e-05 1.55267844e-05 -2.64545070e-05 -2.27848086e-05
      1.21346488e-06 -1.56912793e-05 3.78073173e-06 -4.03095219e-05
      3.12309112e-06 -2.00468844e-06 -6.90460729e-05 -1.50427459e-05
      -2.84676371e-05 -3.62161954e-05 1.29252539e-05 -4.85754463e-05
      -4.88883270e-05 -9.34556665e-05 -1.24251703e-04 1.12546140e-05
      -3.58822253e-05 1.33529902e-04 -4.41990269e-05 -1.92204261e-05
      6.59014040e-05 -5.38065360e-05 -6.79349978e-05 1.85660156e-05
      7.82347911e-07 2.81557623e-05 -8.80805965e-05 -3.01362488e-05
      9.33080955e-05 -4.70408850e-05 -4.50426378e-05 -1.12582733e-04
      -8.34362945e-05 -6.64612235e-05 1.01035212e-05 1.74015833e-04
      9.05906418e-05 -1.71884560e-04 -1.36190874e-05 1.45873455e-05
      -2.17692946e-06 8.81105443e-05 1.15471912e-05 -4.84236371e-05
      -5.31047917e-05 -2.16612916e-05 9.48900706e-05 4.14033857e-05
      8.59678621e-05 -2.35187435e-05 -6.58273439e-06 -2.40923964e-05
      3.15440302e-05 9.61986807e-05 6.23312735e-05 7.40758333e-05
      -7.73696593e-05 -6.75517949e-05 -7.33150373e-05 6.64738764e-05
      2.36347678e-05 7.54178036e-05 -3.19542451e-05 7.00652381e-05
      2.66245434e-06 -6.44671381e-05 -1.08923479e-04 -2.51764832e-05
      -4.62703792e-05 5.73137258e-05 9.59354220e-05 3.72440991e-05
      -6.59935267e-06 7.55498404e-05 3.57459357e-05 -1.66807986e-05
      -1.49376399e-04 -9.99336553e-05 -1.95766013e-04 2.02984338e-05
      -9.52136979e-05 -8.21510112e-05 -6.65015614e-05 6.20166320e-05
      4.84014927e-05 -6.95503331e-05 -4.26999941e-05 9.22666295e-05
      9.97393290e-05 -8.57576379e-05 -2.71916579e-05 -3.25473411e-05
      5.58502325e-05 -3.20328400e-05 -1.45534023e-05 9.23282551e-06
      5.82936591e-05 -1.51979484e-05 4.28616258e-05 -5.69560070e-05
      -1.26336367e-04 -7.99353293e-05 7.40249243e-06 -3.53486867e-05
      -5.40194151e-06 7.35925496e-05 8.81745946e-05 -5.81892455e-05
      -7.27911683e-05 -4.55473964e-05 -5.74521437e-05 -4.15929317e-05
      2.19478025e-05 -2.49425520e-05 6.24064778e-05 4.66488746e-06
      -1.34891685e-04 -1.05828185e-04 7.94695825e-06 -7.02546458e-05
      -5.87382201e-05 -6.80961384e-05 6.48694186e-06 6.70125837e-06
      -2.89180043e-05 -6.26187175e-05 -7.57403031e-05 -4.84811317e-05
      3.61222810e-05 -4.38090792e-05 7.30729007e-05 4.73255495e-05
      -5.02496141e-06 -3.66918175e-05 1.18973749e-05 -8.19764318e-05
      -4.96451430e-05 4.62105236e-05 -4.34392450e-06 5.27235206e-05
      1.80321531e-05 -1.01717369e-05 2.57460288e-05 4.44688794e-06
      -5.01069280e-07 5.05326097e-05 -5.99104933e-05 -1.95302455e-05
      -2.35261323e-05 -3.71075548e-05 -4.08624282e-06 2.57651991e-05
      6.05849236e-05 -4.09313634e-06 3.90165660e-05 1.32711997e-04
      -5.98300448e-06 -7.65067525e-05 -2.57018237e-05 -6.50056681e-05
      6.70909794e-05 6.57853016e-05 4.84223201e-05 -2.74227805e-05
      5.12768020e-05 -1.00851139e-04 -1.04028040e-04 5.34959836e-05
      -4.31205481e-05 3.55650118e-05 2.67023916e-05 -5.38944660e-05
      5.68526921e-05 1.02517282e-04 6.16253647e-06 6.42382875e-05
      1.11112073e-04 -1.12259431e-05 4.15999040e-07 3.42248350e-05
      1.56607748e-05 -4.36010596e-05 8.90867595e-05 3.55668562e-05
      5.97292019e-05 2.63164984e-05 9.80026234e-05 6.16652687e-05
      -3.17514036e-06 -4.08357882e-05 -2.13629773e-05 -2.40175214e-05
      7.51697808e-05 -3.57123608e-05 -1.43520389e-04 1.85650533e-05
      -6.58053978e-05 4.45599690e-05 9.98608157e-05 1.04988823e-04
      -1.16206947e-05 2.26527882e-05 5.19148925e-05 3.09016286e-05
      9.19640570e-06 7.94384032e-05 2.10399485e-05 -2.43490085e-05
      -3.66230743e-05 -6.34683238e-05 7.01447352e-05 4.44968828e-05
      1.03647348e-04 -9.15652781e-05 -4.57941787e-05 -6.41086954e-05
      2.31827175e-06 1.22172511e-04 7.42675038e-05 -4.42331657e-06
      -1.64592449e-04 5.30594934e-06 2.40055433e-05 3.69286427e-05
      -2.46227592e-05 7.22933783e-06 1.20601235e-05 1.14655428e-04
      1.59903720e-04 4.26121114e-05 8.14949235e-05 1.19333063e-05
      2.71405115e-05 -7.70544193e-06 7.81830822e-05 -9.56978238e-06
      1.52603152e-05 -2.14086740e-05 8.27695258e-05 1.91899580e-05
      -9.98324831e-05 2.63893744e-05 -3.25804212e-05 -7.51889893e-05
      1.48165764e-05 -1.89875118e-06 -7.71863142e-06 2.21486407e-05
      -6.13475131e-05 -1.11485329e-04 -3.42174135e-05 -4.44061334e-05
      -1.78181435e-05 -4.52524819e-06 -3.06857255e-05 -6.32238016e-06
      -5.08739940e-05 -1.03367121e-04 -4.91430728e-05 6.32245574e-05
      1.09536501e-04 -5.64174843e-05 -2.84879316e-05 -2.34917425e-05
      -5.35591280e-05 -9.98077521e-05 -1.70485928e-05 1.81718424e-05
      7.46156584e-05 4.12731461e-05 8.48600394e-06 7.44907311e-06
      5.26089461e-05 -6.09633244e-05 -9.15715209e-05 -1.07609121e-04
      1.36295339e-05 4.09480308e-05 -3.97747717e-05 3.55438715e-05
      8.42926602e-05 1.43442148e-05 3.29262475e-05 -2.53871058e-05
      5.46971823e-05 9.27414876e-05 -1.82910771e-05 2.46576255e-05
      -1.11711943e-05 -7.16304858e-05 -1.50782973e-04 -7.25861391e-05
      4.83815602e-05 5.49734104e-05 1.62087272e-05 4.30037144e-05
      9.86192681e-05 1.53758920e-05 1.65288347e-05 3.20746381e-06
      1.70595958e-05 8.12714279e-05 6.00342428e-05 -2.90562748e-05
      -4.89903068e-05 -1.09571847e-04 -8.28548582e-05 2.21170267e-05
      2.38718912e-05 5.95841520e-05 6.18884951e-05 4.32701017e-05
      4.59715848e-05 -1.27185913e-05 -5.83373912e-05 -4.98575864e-05
      -9.49107925e-05 1.25760183e-04 -3.91833564e-05 3.89240922e-05
      2.06749828e-05 2.46637373e-05 2.95385653e-05 9.14674165e-05
      -1.39116701e-05 -1.49436564e-05 -4.94886153e-05 5.77291667e-06
      -2.05260380e-06 5.13748091e-05 -1.03535840e-05 9.89399359e-06
      -6.95423514e-05 1.20098818e-07 -2.90250609e-05 -4.17917472e-05
      -7.60166731e-05 -3.24006032e-05 1.75446676e-05 3.25438705e-05
      -1.12691623e-05 7.35118156e-05 1.43224286e-04 3.48501744e-05
      -6.54413234e-05 -1.25922106e-05 -5.45160001e-05 -1.11089093e-05
      2.99109070e-05 -2.06413479e-05 -1.19969387e-04 -4.93262742e-05
      4.20402866e-05 -4.94181768e-05 -2.90688731e-05 -1.50783613e-04
      -2.10757833e-04 -1.02866739e-04 3.85979348e-07 1.06455285e-04
      2.08525107e-05 2.36450505e-05 6.14417586e-05 4.05823412e-05
      -9.48249544e-06 -6.83251073e-06 -2.70430701e-05 -2.68560216e-05
      -1.00383636e-06 -5.78849977e-05 2.76151804e-05 -3.77857250e-05
      1.51084707e-04 1.07281870e-04 4.11314941e-05 2.03694181e-05
      9.66148673e-06 -3.29773284e-05 4.46684062e-05 -5.66501985e-05
      -5.10690334e-05 -1.47176606e-05 3.73252842e-05 -1.84698911e-05
      -7.48500088e-06 6.74699113e-05 -9.93272533e-06 -1.94136537e-05
      -4.16719740e-05 -1.14880109e-04 4.47966595e-05 1.06118532e-04
      3.04363275e-05 7.49474857e-05 2.71830049e-05 3.12606135e-05
      8.75916812e-05 5.27366756e-05 8.03298462e-06 -3.52584902e-05
      3.09176103e-05 3.96229334e-05 4.11487345e-05 9.07868816e-05
      -5.19509813e-05 2.97231654e-05 3.51782401e-05 1.75519938e-06
      -5.42378802e-05 4.42434539e-05 2.39601486e-05 7.73517240e-05
      1.11657228e-05 9.78696116e-05 1.52283217e-04 1.24216065e-04
      -4.77337380e-05 9.98024916e-06 -4.95921704e-05 -6.44591055e-05
      -7.27930092e-05 3.59080077e-05 1.32177929e-05 -5.15801839e-05
      -7.26202852e-05 6.94117043e-05 -2.71287663e-05 -3.87584078e-05
      5.72403987e-05 -1.23538470e-04 2.80897279e-06 -4.83199437e-05
      1.39963386e-05 6.24204622e-05 -7.42703633e-05 -9.75916118e-05
      -1.54189402e-04 5.38733366e-06 1.62845536e-04 -2.96936050e-05
      -2.83687059e-05 -4.96534358e-06 -1.44570280e-04 -4.51610358e-05
      -7.10173026e-06 9.64646606e-05 1.78071350e-05 5.23268973e-05
      9.17850684e-06 7.09356173e-05 1.14749037e-05 -3.30475013e-05
      -2.58501004e-05 7.63641510e-05 3.58910802e-05 -1.04055698e-05
      -7.00582459e-05 1.77681341e-05 3.85113854e-05 -6.26872716e-05
      -5.95288475e-05 -3.62100291e-05 6.16872194e-06 1.12014721e-04
      7.47394879e-05 1.16572892e-05 4.14095375e-05 1.12848829e-04
      -1.40860602e-05 -9.01076419e-06 1.43737525e-05 1.14107497e-05
      9.50060130e-05 -7.26476173e-06 1.92446278e-05 -3.73067633e-05
      8.12107464e-05 -1.85699064e-05 -1.57612812e-04 -1.07213076e-04
      -5.84433001e-05 -2.58432101e-05 7.33013148e-05 -7.21908655e-05
      -3.22673914e-05 -9.30670867e-05 -3.78065561e-05 -6.94988848e-05
      -9.12521355e-05 -8.90786760e-05 -8.79466188e-06 1.51515516e-04
      3.65934720e-05 -4.42953460e-05 5.23435519e-05 2.03669460e-05
      3.29622417e-05 -9.18029618e-05 -6.77636999e-05 -1.92675925e-05
      -4.66250240e-05 -3.41836458e-05 4.23368292e-05 6.13190605e-06
      -5.91511198e-05 -9.35621647e-05 1.66143345e-05 8.95369594e-05
      9.61843216e-06 -1.49464458e-05 3.40160987e-05 -2.48464930e-05
      -6.73322575e-05 1.79996496e-05 2.52232530e-05 -5.59352629e-05
      -9.93021895e-05 9.75212533e-05 -4.59884250e-05 7.58040824e-06
      -6.96897259e-05 -8.04372903e-05 6.15253214e-07 -7.28353771e-05
      -9.29578600e-05 -4.02608312e-05 9.53802191e-06 3.43900028e-05
      9.50081521e-05 -2.27372851e-07 -5.24262141e-05 1.68850111e-05
      -3.06462680e-05 -4.13053895e-05 -2.55986311e-06 -2.92798995e-05
      -8.73245735e-05 5.99994237e-05 -5.67277821e-05 -5.03573865e-05
      6.75300034e-05 -5.96981808e-05 -3.52032548e-05 3.57437384e-05
      5.99836058e-05 8.13875158e-06 3.72509967e-05 2.92146924e-05
      -1.43737343e-05 -2.91640554e-05 -6.53710376e-05 -4.86723875e-05
      -2.30504702e-05 9.88187239e-05 1.40423712e-04 6.24135055e-06
      8.41291258e-05 -6.65056650e-05 -1.01564176e-04 -1.14473951e-04
      7.11082703e-06 7.89338883e-05 -8.84935071e-05 -7.92509600e-05
      5.25365249e-06 3.05687863e-05 3.18085367e-05 -1.02694692e-04
      -1.19507975e-04 -3.70192429e-05 1.08494205e-04 -5.73962388e-05
      -1.24320999e-04 -5.90447453e-05 -8.95612102e-05 -6.48648202e-05
      -2.52328027e-06 4.91050923e-05 9.37474106e-05 2.51892216e-05
      4.52109271e-05 -1.43331192e-06 -1.39838856e-04 -9.39360052e-06
      2.04840908e-05 -5.12175538e-05 -8.30557619e-05 -6.59112993e-05
      2.95826667e-05 6.94093615e-05 3.09821985e-06 -6.68709981e-05
      5.92386859e-05 1.43392026e-05 -7.67755482e-05 4.09075728e-05
      -9.65581494e-05 -2.28269528e-05 -1.86330926e-05 -3.82517683e-05
      -4.34146023e-05 7.98709443e-05 1.84860746e-05 -3.69760928e-05
      -6.16689249e-06 -8.58685016e-05 -1.75950317e-05 -2.00119375e-05
      -7.78814501e-05 3.07280679e-05 8.04127340e-05 2.61699734e-05
      1.38699470e-04 -1.43313991e-05 6.35020842e-05 5.07308869e-05
      -5.52601923e-05 -3.62494466e-05 8.84861802e-05 1.22896236e-04
      -1.15668990e-05 -9.43209161e-05 -2.79854030e-05 -4.73467990e-05
      -1.00406651e-04 1.00869130e-07 2.59207627e-05 -5.80776359e-05
      -1.02047721e-04 4.62927455e-05 2.53539365e-05 -6.93686816e-05
      -7.99657137e-05 -6.17751066e-05 -8.47829288e-05 -1.99414571e-04
      -1.93142259e-04 -9.59273675e-05 -8.13103470e-05 -6.71824309e-05
      -1.93442593e-05 -6.21089348e-05 -1.81624710e-05 -1.67692292e-06
      -8.83471293e-05 -4.76271161e-05 -1.55745838e-05 -3.32301388e-05
      -7.89337500e-05 5.34324718e-05 6.07842703e-05 -2.08739948e-05
      1.21970530e-04 2.55055784e-05 -3.33872631e-05 -1.16003539e-04
      5.16391119e-05 7.13739719e-05 -3.91387184e-05 -3.69383270e-05
      -1.40805068e-05 1.49644547e-05 2.63100683e-05 8.64652247e-06
      2.60805755e-05 6.96545831e-05 1.85402259e-05 -1.63303528e-04
      -3.99643432e-05 -1.19026612e-04 -1.04896637e-04 -5.58998290e-05
      -9.50891263e-05 -1.49259276e-05 -3.60830963e-05 -1.60668696e-05
      -1.36936865e-06 -7.54944631e-05 -4.25114413e-05 1.00143443e-04
      5.52437596e-05 9.67254018e-05 -6.60471358e-07 -4.02216210e-05</_>
    <_>
      -2.77958152e-05 4.50018306e-05 3.89661272e-06 1.47453629e-05
      1.13635624e-05 -7.11089306e-05 -2.30709156e-05 -5.16817599e-05
      -4.28762760e-05 6.52914969e-05 -2.24092619e-05 8.77999410e-05
      2.38830307e-05 -2.12191262e-05 -7.81456547e-05 -9.72818697e-08
      5.01441173e-05 1.40088432e-07 5.39422872e-05 1.68848856e-05
      -3.17502490e-05 -6.55104595e-05 -3.09627503e-05 -2.66156718e-07
      6.21686922e-05 -4.41070988e-05 -5.13222767e-05 -1.56169408e-05
      -4.19874705e-05 -1.00121622e-04 -3.08178860e-05 -2.89332365e-06
      6.15560857e-05 -4.68528415e-05 1.47043920e-05 1.66989594e-05
      5.48307908e-05 4.14447859e-05 4.34461872e-05 -2.49404002e-05
      -1.40068232e-05 1.74238858e-06 3.21206608e-05 7.43780183e-05
      6.54971955e-05 -6.26937108e-05 -9.02663451e-05 8.32664773e-06
      1.09820328e-04 -1.19699005e-04 -5.29604586e-05 4.91634364e-06
      2.63880793e-05 2.77494764e-05 -1.34684269e-05 -1.58578550e-05
      5.83920446e-05 -4.57106398e-05 -7.94392763e-05 1.65352758e-05
      1.16256888e-06 -8.10448983e-05 -9.66078660e-05 2.24139312e-05
      3.89356319e-05 3.60952508e-05 2.36058877e-05 -1.74553970e-05
      -1.78125374e-05 -3.91003850e-05 -1.01886544e-04 -8.01375863e-05
      -8.88908253e-05 -2.99368076e-05 -5.30876932e-05 5.76909842e-05
      7.87515310e-05 1.03271435e-04 2.93590183e-05 1.99365168e-05
      1.65278598e-05 5.53112659e-06 -3.67531611e-05 -6.08318842e-05
      1.54178508e-07 3.15275174e-05 -1.10620958e-05 3.39756912e-06
      3.16432343e-05 -7.41741387e-05 -1.29458916e-04 -4.24444552e-05
      -6.33205054e-05 6.59935449e-06 6.81489910e-05 3.85622843e-05
      1.13911083e-05 6.96693241e-05 2.52338396e-05 -4.07836051e-05
      7.18302035e-05 3.91180329e-05 6.52511662e-05 1.37987454e-05
      3.29644281e-05 3.81965619e-05 5.74469450e-05 4.42589626e-05
      -4.11424444e-05 -5.39732609e-05 -4.53810117e-07 -4.29008433e-05
      2.59614244e-05 -8.22382481e-06 -6.57454366e-05 1.57022587e-05
      -2.57777028e-05 -8.82978929e-05 -6.73932955e-05 1.86577909e-05
      8.33957311e-05 5.42878042e-05 6.77066855e-05 -1.01687192e-05
      3.59691912e-05 3.02277076e-05 -3.34020297e-05 -1.24961407e-05
      -2.52646004e-07 -1.08399281e-05 -2.51386682e-05 7.13890404e-05
      7.25852005e-05 -1.71818829e-05 -8.75428668e-05 -3.97849471e-05
      1.16197839e-06 5.38242275e-05 -9.82588972e-06 9.19802987e-05
      3.18740276e-05 6.48920541e-05 4.19181342e-05 9.11121970e-05
      -1.43827301e-05 -2.18732766e-05 -5.11426297e-05 -4.70484083e-05
      -2.08887177e-05 -1.37115940e-05 9.20749699e-06 -9.39469755e-05
      4.90660314e-05 1.17027430e-05 -2.71424906e-05 1.06061157e-06
      -4.48590363e-05 -3.30264520e-05 -1.43235102e-05 2.48907563e-05
      5.27845041e-05 1.12573034e-04 2.61551231e-05 2.09445243e-05
      5.67768184e-05 -3.14549907e-05 -5.18699271e-05 -4.95050699e-05
      2.08279580e-05 9.87189196e-07 3.28731840e-05 3.42681014e-05
      1.29618693e-05 -4.22046178e-05 1.89784150e-05 -4.83155745e-05
      -4.81634997e-05 3.25377187e-05 4.21629557e-05 2.21998798e-05
      1.84381668e-06 -3.33767384e-05 2.54345105e-06 1.05232730e-05
      1.09314766e-04 -8.38965116e-06 -6.70671652e-05 -2.61318855e-05
      8.70299846e-05 6.93301918e-05 5.46911797e-05 4.56432244e-05
      2.36887099e-05 1.99922215e-05 -7.09647247e-06 4.88878359e-05
      4.82637079e-05 1.05628242e-05 -6.91095556e-05 -2.89094041e-05
      -6.80058656e-05 -6.00897147e-05 1.59415413e-05 9.62771155e-05
      4.31923218e-05 4.04918865e-05 4.43066492e-05 8.02987488e-05
      -5.73721536e-06 5.86569258e-05 5.98529805e-05 2.80477470e-05
      -3.91028116e-05 4.06111831e-05 -2.11477454e-05 -6.04991037e-05
      -8.22602451e-05 5.84388863e-06 -1.85029403e-05 -4.55914305e-05
      -4.22244739e-05 1.14768256e-04 -1.29814343e-05 3.21949556e-05
      -7.66564772e-05 3.01292789e-06 5.17966073e-05 1.54027512e-05
      -3.15224206e-05 -3.24074172e-05 -2.14991578e-05 -3.13596684e-05
      2.48498454e-05 -5.47553573e-05 -4.95013192e-05 -3.95917368e-06
      7.17319654e-06 7.95494416e-05 -4.30048240e-05 -5.54357066e-05
      6.46743574e-05 6.39862556e-05 1.91189338e-05 -3.93727714e-05
      -2.86290742e-05 -2.41729522e-05 5.39867724e-05 4.21915720e-05
      1.69902651e-05 -8.18331027e-05 -4.79005503e-05 2.23894476e-05
      -4.99708513e-05 4.55518857e-05 5.90892159e-05 -3.89762936e-05
      -3.41097234e-06 -3.97318508e-05 1.42374529e-05 -3.14546814e-05
      3.39531689e-05 3.03437500e-05 -3.37108504e-05 -2.60513152e-05
      -7.47517770e-05 3.47608729e-05 1.83977954e-05 3.14441081e-06
      -1.03385109e-05 -2.90967218e-05 -3.49113020e-06 -2.60075631e-05
      -1.46019283e-05 4.61246709e-05 4.44727048e-05 1.55802172e-05
      -3.15988109e-05 1.00775782e-04 1.53679775e-06 -4.09834720e-05
      -1.10517585e-05 3.37367710e-05 2.35532161e-06 2.32325310e-05
      -5.82016073e-05 -4.86749923e-06 -5.94569174e-05 -1.90806713e-05
      2.80243912e-05 7.88267716e-05 2.18593577e-05 -1.46971406e-05
      -6.03119806e-05 4.31725639e-05 -4.12349327e-05 -3.11363547e-05
      3.20384133e-05 -6.95450726e-05 -5.42359521e-05 -4.17045740e-05
      -4.33531277e-05 8.82404565e-05 5.87070354e-05 -1.84347045e-05
      -4.48617757e-05 -3.08382514e-05 2.16050903e-05 1.07306842e-04
      9.04597764e-05 1.60756972e-05 -1.06464668e-05 -1.65430320e-05
      -5.39364373e-05 -8.57254872e-06 1.11604968e-04 -5.31557016e-05
      -9.67123051e-05 3.55732227e-05 1.05233688e-04 1.39636459e-05
      7.37210357e-05 3.65524975e-05 -2.15365526e-05 -1.75060832e-05
      -1.60202999e-05 2.32038074e-05 -1.07789210e-05 -6.53470779e-05
      -2.01010316e-05 2.68453587e-05 -3.85706408e-05 6.84641564e-05
      1.49337320e-05 4.86052340e-05 -2.15228974e-05 4.09464628e-05
      5.84207737e-05 -2.61270429e-07 -2.92840286e-05 -7.66971716e-05
      -3.95168718e-05 1.73437784e-05 7.61394549e-05 2.35600401e-05
      -6.94715663e-06 -4.76237255e-05 2.06259347e-06 -2.18718833e-05
      -4.00978897e-05 1.56186743e-05 -3.29783943e-05 3.12999546e-05
      1.82177591e-05 4.37100825e-05 -7.99761438e-06 4.03981503e-05
      6.79289005e-05 1.17738118e-05 -1.17615782e-05 4.87238458e-06
      -4.51085689e-05 -5.61050138e-06 1.78661103e-05 4.25929029e-05
      -1.25009092e-05 -4.73153596e-05 -5.47288346e-06 6.12713848e-05
      6.63322789e-05 -3.24430148e-05 -4.14931083e-06 -4.39772848e-05
      9.13027270e-06 -9.60001635e-05 -6.15438621e-05 3.56543060e-05
      9.21809406e-05 2.73913538e-05 3.56137207e-05 -3.95335555e-05
      -1.07898713e-05 -2.41784564e-05 -3.48153590e-05 -6.31350194e-05
      2.71665340e-05 4.58875584e-05 5.22616792e-05 -5.60661756e-05
      4.51571796e-05 3.28576862e-05 1.60350846e-05 3.05802314e-05
      9.96224026e-06 1.87464150e-06 -5.46466581e-05 3.82968938e-05
      -1.69237737e-05 -5.10848076e-05 -3.80111123e-05 8.88100840e-06
      2.53709350e-05 1.97983991e-05 4.32937071e-07 -3.54902622e-05
      3.06778384e-05 7.99792469e-05 6.69608562e-06 -6.36733384e-05
      -6.60339065e-05 -5.30656616e-05 2.71009594e-06 -4.77612157e-05
      6.67885615e-05 -1.85428598e-05 1.29212708e-06 -5.16321124e-05
      3.28370552e-05 -2.66920011e-07 -2.72717498e-05 -4.91238789e-05
      1.40601469e-06 -2.55375944e-05 4.33368405e-05 -2.69323664e-05
      9.44510521e-06 -3.84628256e-05 1.46006723e-05 -6.65674161e-05
      -8.55050530e-05 4.56600574e-05 -6.33271520e-06 -9.36400193e-06
      -2.28097506e-05 3.27586495e-05 7.34474233e-05 5.69858057e-05
      -2.09933678e-05 -4.23477177e-05 -5.40433575e-05 2.03933268e-05
      -2.64819982e-06 3.53141986e-05 1.62435135e-05 -1.09994384e-04
      -2.37326567e-05 1.37030902e-05 8.82558288e-06 1.87062760e-05
      3.05687936e-05 -9.47727094e-05 6.33153468e-05 -2.26554166e-05
      2.42675839e-07 -4.11927904e-05 -7.10892200e-05 -1.29309337e-04
      2.03398704e-05 2.92208642e-05 3.18299426e-05 4.98873269e-05
      4.16283438e-05 6.11005680e-06 2.29474390e-05 -1.55139551e-05
      -4.69747029e-05 3.61373932e-05 1.68647584e-05 3.25326084e-07
      -9.81479679e-05 -4.21704608e-05 -1.54921960e-04 -6.96415955e-05
      -6.08836262e-06 -3.71080678e-05 -7.79416878e-05 -2.94144538e-05
      -4.05720166e-05 6.74083867e-06 7.55035990e-06 -4.13131675e-05
      8.66687478e-05 4.47469974e-05 -2.70817854e-05 3.07753144e-05
      1.11500376e-05 4.47887323e-05 -7.31624459e-05 -5.35209801e-05
      5.97506296e-05 -9.74568757e-05 -1.00549871e-04 -3.74320189e-05
      4.69494917e-05 -1.87178448e-05 -3.92223592e-05 -2.42156966e-05
      -8.01582792e-05 -1.00240468e-05 -1.74212637e-05 -1.31528459e-05
      -5.30323960e-05 -1.17411837e-04 -5.18994020e-05 1.97295230e-05
      5.33900275e-05 -7.52483857e-06 4.17412593e-05 -3.15314137e-05
      1.16864503e-05 1.41550463e-05 -5.74648220e-05 -1.56365466e-04
      2.31973445e-05 3.72150935e-05 7.15366405e-05 2.31466784e-05
      1.18679585e-04 3.40005972e-05 -1.21028870e-05 -4.01383913e-05
      -4.95119684e-06 -1.44823907e-05 -4.48600513e-05 4.51810483e-05
      4.53326356e-05 6.18378908e-05 -3.11788644e-05 -6.11733776e-05
      -3.90980240e-05 -3.69228037e-05 2.54605129e-05 1.66198552e-05
      4.25009202e-05 -7.47588347e-05 -1.37161041e-05 -1.33806834e-05
      2.11876195e-05 3.46899833e-05 -8.86217435e-07 1.38731602e-05
      -1.29426517e-05 -4.03299564e-05 5.72736280e-05 2.88476003e-05
      5.16141299e-05 3.63876316e-05 1.64601479e-05 -5.12459919e-05
      -4.03888553e-05 -3.52451752e-05 -8.49422577e-05 3.10829273e-05
      -1.14238674e-06 1.65544097e-05 2.28423251e-05 2.75346201e-06
      1.09660512e-04 4.92569015e-05 4.21906770e-05 5.98120423e-05
      -2.46161999e-05 4.34936555e-05 8.17077744e-05 2.12268733e-05
      1.80061161e-05 1.30508517e-04 6.32344891e-05 1.12694172e-04
      -3.34066499e-05 -9.99805634e-05 -4.13644448e-05 -8.00387643e-05
      1.23376070e-04 2.11884399e-05 -6.38166384e-05 -5.78987492e-05
      5.67223033e-05 -3.98538177e-05 7.48279126e-05 -4.17301044e-06
      -5.62231180e-05 -1.02244621e-06 -1.98349080e-05 1.55720008e-05
      -2.79909909e-05 -3.92327893e-05 -1.04047849e-05 -1.75924615e-05
      3.47508067e-05 8.10850252e-05 -8.10215715e-06 -1.37588904e-05
      -6.72766373e-06 -1.77329657e-05 1.25928354e-05 7.31526670e-05
      -4.85390228e-06 2.36145370e-05 3.02989301e-05 1.53758410e-05
      3.39673134e-05 2.18103196e-05 -4.08575761e-06 -2.36341875e-05
      -1.14790986e-04 -1.16829004e-04 3.13989294e-05 5.16868313e-05
      4.99979396e-05 2.20989423e-05 -2.43731411e-05 -9.89217006e-06
      9.67864526e-06 -8.03504881e-05 -4.86816680e-05 -2.29825473e-05
      -2.92304576e-05 5.73369907e-05 8.34123421e-05 1.30482658e-05
      3.99635537e-05 7.47323747e-06 4.00526733e-05 -3.10678806e-05
      -3.83459837e-06 -4.14427741e-05 3.39804610e-05 5.99832447e-06
      -5.17596418e-05 -1.06057909e-04 1.47760666e-05 5.86263632e-05
      2.84985308e-05 -1.48859195e-04 -6.67423737e-05 -5.27552984e-05
      1.38059579e-06 -5.23368954e-06 -3.42046515e-05 7.55128258e-06
      -3.26053378e-05 -3.78435980e-05 3.74479205e-05 3.35945479e-05
      -1.46606390e-05 3.65203232e-06 -1.18178024e-04 -5.88439216e-05
      -4.85740275e-05 -3.32788768e-05 3.39196013e-05 5.29252357e-05
      -5.54326871e-05 1.55374564e-05 -1.44082387e-05 -4.10828807e-06
      -6.52439558e-05 -2.37281092e-05 -3.35852528e-05 7.15029528e-05
      6.35479819e-06 3.02773587e-05 -1.77159945e-05 -1.63354107e-05
      5.20942340e-05 -2.25044296e-05 -1.07632532e-05 4.93015359e-05
      6.96077268e-06 7.62755153e-05 4.98914669e-05 4.08470587e-05
      -1.54205409e-05 -5.85272255e-06 -7.28343148e-05 -4.68196449e-05
      3.82966300e-06 4.58708746e-05 -1.90369010e-05 3.97291515e-05
      -2.08323036e-05 -6.74677649e-05 4.93386096e-06 5.17025001e-05
      7.01482786e-05 1.07245551e-05 1.52333305e-04 1.55636008e-04
      -7.19959917e-06 -2.73208298e-05 3.61046405e-05 -3.41956111e-05
      -4.85530909e-05 2.01447219e-05 -2.71016197e-05 -4.85691526e-05
      2.86765517e-05 8.41910696e-06 2.61487767e-05 7.54124048e-05
      4.34424983e-05 -8.54324389e-06 1.66416939e-05 5.26622207e-05
      -2.53832568e-05 2.30092901e-05 5.64059301e-05 -3.49233665e-06
      1.55106572e-05 2.14214288e-05 -4.75310553e-05 -5.44920258e-05
      1.08209825e-07 -9.07923823e-05 -7.45267462e-05 -1.96303540e-06
      2.48072065e-05 2.13894727e-05 -7.63861535e-05 -1.18879962e-05
      -3.69070440e-05 -3.76507196e-05 2.36291362e-05 4.18823311e-06
      6.45523323e-05 8.06000971e-05 1.93078631e-05 -5.48160606e-05
      5.54656435e-05 -2.01107832e-06 6.00434942e-05 1.72576529e-05
      2.55252053e-05 -4.52650238e-06 -5.62884234e-05 9.33491174e-06
      2.06989153e-05 1.13156548e-05 3.50583696e-06 1.63373934e-05
      1.42700628e-05 1.41371975e-05 3.45100352e-06 1.84298369e-05
      5.13019222e-05 -3.58119337e-06 7.79011461e-05 1.81647538e-05
      -5.26985459e-05 -2.13018466e-05 2.53855160e-05 5.62596579e-05
      2.60874058e-05 6.25196117e-05 3.09197468e-08 5.48974531e-05
      3.24588946e-05 -9.64845640e-06 2.31482991e-05 -8.89213261e-05
      -2.91878750e-05 -2.08033125e-05 2.03884974e-05 5.99653431e-05
      -1.06352218e-05 5.61312299e-05 -8.55616599e-06 -8.50905126e-05
      2.79571359e-05 4.06957770e-05 3.13761848e-05 3.66966742e-05
      9.96703166e-05 -3.65010492e-05 -9.22135951e-05 -4.41525481e-05
      -4.36392766e-05 -8.38008636e-05 -3.70214038e-05 1.05543913e-04
      6.51145092e-05 6.94580012e-05 -7.29293242e-06 9.42468614e-05
      3.06504589e-05 8.34313832e-05 7.98405090e-05 4.39189025e-05
      4.31202443e-06 7.53544009e-05 -4.24434120e-06 -3.31712981e-05
      7.64608849e-05 -2.97464649e-05 -2.27371129e-05 -2.90434655e-05
      -6.72403330e-05 1.17574549e-04 4.45315418e-05 6.14340097e-05
      -1.56245642e-05 2.86843388e-05 6.91749738e-05 1.23837104e-04
      1.71711770e-04 1.25157894e-04 3.57082026e-05 1.23328755e-05
      -2.82341443e-05 1.34416805e-05 8.03885414e-05 3.02809576e-06
      4.15265131e-05 -6.65589178e-05 -6.25344765e-05 -2.93366193e-05
      9.53808922e-05 7.62755590e-05 -4.95478344e-05 -5.57141466e-05
      5.34987557e-05 3.48207977e-05 1.12930808e-04 8.13338102e-06
      4.45175137e-05 1.07151418e-05 2.82401252e-05 -3.49695438e-05
      -5.56510531e-05 3.36671001e-05 7.72165295e-05 4.23279198e-05
      6.06919400e-07 7.63199932e-05 4.08739397e-05 -2.07467820e-05
      2.87656917e-06 -1.11181398e-05 -2.83020163e-05 -4.20409742e-05
      -6.59673678e-05 -4.07291482e-05 -3.10332725e-05 1.29918180e-05
      -9.34943091e-06 -6.03968801e-05 -1.94415225e-05 -2.90657772e-06
      1.42931431e-05 -2.97357565e-06 2.51879210e-05 1.90793398e-05
      4.15906243e-06 4.79402224e-05 6.72308888e-05 -1.65523397e-05
      1.75324367e-05 -4.64399563e-05 -4.16140501e-05 -3.35362893e-05
      -2.14712418e-06 -7.37439841e-05 3.20315594e-05 -1.70452004e-05
      2.38133543e-05 -6.91778696e-05 -6.08271284e-06 2.49620389e-05
      6.58393474e-05 -2.39684032e-05 -5.06631977e-06 -7.72812782e-05
      -5.45579023e-05 -2.04713124e-05 9.27094152e-05 4.50733569e-05
      -3.09561001e-05 -7.65102377e-05 2.70984674e-05 1.36842136e-04
      7.87394019e-05 2.73244223e-05 -4.97462315e-05 -3.01277287e-05
      5.15956272e-05 -2.83463924e-05 1.49297921e-05 -4.77363174e-05
      -3.28026763e-05 -2.51292495e-05 -2.17412580e-05 1.00945232e-04
      -1.46856200e-05 4.94382912e-05 1.12898090e-06 -1.34079455e-04
      1.32923888e-04 4.28401327e-05 5.84998488e-05 -2.31863487e-05
      5.94228095e-06 -5.61439701e-05 -8.62526649e-05 -4.03389749e-05
      -5.96810642e-05 -9.76034335e-06 1.55354664e-05 2.38810117e-06
      3.80113561e-05 3.87763976e-06 2.91625183e-05 3.42161984e-05
      3.47130263e-05 -4.65536577e-05 8.41996643e-06 1.96250876e-05
      -4.30472683e-05 3.97056574e-05 -1.47865667e-05 -1.20519189e-05
      -3.40750103e-06 -3.82179023e-05 -4.34643698e-05 -3.81033933e-05
      -2.60656197e-05 -1.69647546e-06 -3.80417187e-05 1.78868431e-05
      -3.43011889e-05 2.38553803e-05 8.91140098e-06 2.88248430e-05
      -2.51619804e-05 1.15980465e-05 7.90576159e-05 6.27516347e-05
      3.55297452e-05 -1.92156222e-05 -7.68326299e-06 1.95709144e-05
      -3.87449945e-05 -5.37199339e-05 -1.03974948e-04 -1.78788323e-04
      8.76762788e-05 -8.75387832e-06 -1.45937753e-04 -7.38371382e-05
      2.39132369e-05 2.38572670e-06 -6.88055370e-05 -6.49389913e-05
      -6.78957076e-05 -1.83964858e-05 -6.05888545e-06 3.38647551e-05
      -6.94683695e-05 -2.24924188e-05 -1.02993199e-05 1.73362023e-05
      -5.14755411e-05 -3.25282708e-05 -2.09257505e-05 -1.70548556e-05
      2.04799526e-05 -5.24031166e-05 -5.01141112e-05 -2.65083781e-05
      1.12807193e-05 -3.98573593e-06 1.79347226e-05 -2.27180294e-06
      -5.74483820e-05 -1.17932968e-05 -9.28693044e-06 1.12641519e-05
      -3.60514423e-05 2.10895432e-05 2.96094568e-05 2.30956321e-05
      -1.90611936e-05 4.61240379e-05 5.96594964e-06 -7.66900193e-05
      -7.41573240e-05 1.38072828e-05 3.49120342e-06 3.72917457e-05
      3.66845670e-05 2.79754440e-05 2.91343713e-05 1.65651329e-06
      3.84363229e-05 8.60213549e-05 2.64563405e-05 -3.10952455e-05
      -5.87536888e-05 6.98383810e-05 1.88376798e-05 2.15536402e-05
      -8.14383529e-05 -5.38770701e-06 -2.83477857e-06 -2.24345822e-05
      -5.82154717e-05 -1.85957997e-05 -2.05756696e-05 6.23311425e-05
      3.57184445e-06 -2.53793792e-06 -3.65366213e-06 1.13562746e-05
      6.56457050e-05 8.49430289e-05 -9.70539404e-05 -3.13695273e-05
      -1.36457180e-04 -2.52930404e-05 7.39843454e-05 -6.94629998e-05
      4.72410093e-08 8.18542831e-05 2.69864468e-05 -6.17232654e-05
      3.75894815e-05 -3.19129213e-05 2.10835005e-05 -1.35141581e-05
      -6.65185653e-05 -2.39030178e-05 -6.06397880e-05 -2.87183957e-05
      -6.05313471e-05 9.16203571e-05 9.75257135e-05 -3.01680029e-05
      -3.81585996e-05 -2.37538879e-05 5.09429410e-05 7.15275964e-05
      -5.61707420e-05 7.38140807e-05 5.86647766e-05 9.71693298e-05
      -5.91841017e-05 7.64365395e-05 -3.21856569e-05 -3.59436272e-05
      -2.89698141e-06 -1.57397644e-05 -4.91479259e-05 -2.22587933e-05
      5.96010750e-07 2.67051146e-05 -1.47752035e-05 -3.92609873e-05
      2.74173490e-05 3.54091026e-05 2.96328326e-05 -3.99860119e-06
      3.94538574e-07 1.08305052e-04 6.85397172e-05 6.70914305e-05
      1.08934764e-05 -8.54574973e-05 6.30982822e-06 -1.13952919e-05
      -3.02151384e-05 -2.08961615e-06 -3.98814009e-05 -1.02779348e-04
      3.01027976e-05 1.57503592e-07 -1.04395556e-04 -4.13477974e-05
      2.95289683e-05 7.12066321e-05 -5.39928660e-05 -5.34165410e-05
      -5.27584052e-05 1.13496601e-04 -2.02529700e-05 -1.55298942e-04
      -1.06359999e-04 3.48203503e-05 2.12363575e-05 2.63985930e-05
      -1.62563210e-05 -1.46313314e-05 -2.81111988e-05 -6.66542910e-05
      -4.16009825e-05 -3.65435299e-05 3.39958024e-05 -1.47961573e-05
      -3.68459541e-06 -5.65974096e-06 2.47653061e-05 -8.79453510e-05
      -1.52884895e-05 -2.55338473e-05 2.95191530e-05 5.03598130e-06
      3.71520946e-05 4.13186026e-05 -6.06965623e-05 -8.27838958e-05
      -1.38752557e-05 -5.56343111e-05 -5.31478406e-07 -1.46757642e-07
      1.69785635e-05 -7.82910683e-06 -1.91703548e-05 2.92426012e-05
      1.91142353e-05 -9.54403640e-06 -5.08084231e-05 -4.98906957e-05
      -5.26733529e-05 6.41724837e-05 -1.31817233e-05 7.59779505e-05
      4.10608664e-05 9.01716630e-05 2.57063061e-06 -5.96169230e-05
      -4.91529136e-05 -7.76843008e-05 -1.08106169e-05 -3.69773188e-05
      3.89410661e-06 -1.61080170e-05 -9.47146873e-06 8.51274526e-05
      -7.09276446e-06 -4.99093840e-05 -1.55097296e-05 4.35666807e-05
      6.23741143e-05 -5.31912410e-05 -8.03734365e-05 -9.82281126e-05
      -3.10516916e-05 7.50622348e-05 3.13901037e-05 -1.19745300e-05
      6.34483367e-05 3.69757981e-05 5.02705043e-05 1.73269127e-05
      3.05580870e-05 4.37951858e-05 3.66537677e-07 -7.74896398e-06
      -3.81990467e-05 -1.34159985e-04 -5.46994052e-05 -2.98362211e-05
      6.52307644e-05 5.31488731e-05 5.50780969e-05 5.02993826e-05
      2.17633260e-05 4.40347758e-05 7.89057667e-05 6.03530862e-05
      1.95949224e-06 -5.21213224e-05 4.83713302e-05 -2.13369949e-05
      -5.55624101e-05 1.30121743e-05 -4.93023945e-05 -4.01898651e-05
      2.24960258e-05 -5.82528846e-05 -8.12305443e-05 1.22402298e-05
      -4.36936716e-05 4.41434277e-05 -1.74495181e-05 -1.47735263e-05
      3.12074117e-05 -2.76174196e-05 -3.10506330e-05 -4.07856569e-05
      1.63111563e-05 9.56430958e-05 5.71661949e-05 -2.49795048e-05
      4.04291713e-05 1.97592817e-05 -1.16527062e-05 -4.31582921e-05
      6.46940389e-05 3.41259693e-05 -7.12587716e-05 -5.19412388e-05
      1.28572050e-04 -5.32769664e-05 -8.80984080e-05 -2.30497189e-05
      -6.87311476e-05 -1.03216749e-04 8.61047465e-06 1.60046329e-05
      4.82720861e-05 4.62430035e-05 6.41699371e-05 -4.74158805e-05
      -3.01156706e-05 9.65667459e-06 1.45727754e-05 -1.14302802e-05
      8.25376731e-07 -8.83153461e-06 4.40235817e-05 2.22186845e-05
      2.44747571e-05 -3.17551821e-05 2.74807371e-05 -1.43912621e-05
      3.28204806e-05 7.00628334e-06 -6.34891330e-05 1.11738664e-05
      3.08669187e-05 3.73321782e-05 8.68514144e-06 3.06270304e-05
      -3.51544054e-06 3.64408843e-05 2.33766423e-05 -4.31306726e-05
      1.51174231e-06 5.54724684e-05 -3.26738700e-05 -4.44760954e-05
      -7.22018085e-05 -5.89525880e-05 -8.73699537e-06 -2.17866746e-05
      -3.83699407e-05 -1.68147762e-05 2.03652735e-06 -1.47120284e-06
      -5.24752359e-05 -9.16528006e-05 -1.14196489e-04 -4.11802284e-05
      -7.57251619e-05 5.58061474e-05 6.37823041e-06 2.70209348e-05
      7.77253736e-05 -5.59763685e-05 -8.62978341e-05 -6.37357152e-05
      -5.49834804e-05 7.57056259e-05 -3.81312602e-05 -8.03943767e-05
      5.31497317e-05 4.15801769e-05 1.53869823e-05 -3.88607514e-05
      -1.01119749e-05 -1.25298729e-05 2.90003354e-05 9.63023413e-05
      6.48533314e-05 -5.21595612e-05 3.32375821e-05 4.27187297e-05
      -4.73363507e-05 6.45259424e-05 2.58376040e-05 2.93848916e-05
      -2.46195032e-05 -4.54645087e-05 7.68175451e-05 2.71728350e-05
      6.83438775e-05 1.14283566e-05 -2.99403382e-06 -6.92838657e-05
      -9.40705741e-06 8.57005143e-05 9.72165872e-05 6.57724231e-05
      -9.37980349e-06 -2.22039012e-06 5.20417700e-07 7.18390802e-05
      -1.91412273e-05 3.33941971e-05 -3.80291858e-05 2.40856807e-05
      -6.62138264e-05 -4.94301421e-05 -8.20541754e-05 -5.36499429e-05
      -6.54647229e-05 -2.53898143e-05 2.05329961e-05 1.24401613e-05
      1.05480121e-05 5.22208684e-05 4.21612494e-05 3.58457546e-05
      4.48480350e-05 -1.89892562e-05 -4.47234270e-05 8.75284386e-05
      2.09280333e-05 1.16852689e-05 -2.07483299e-05 4.96981629e-05
      8.29685450e-05 6.63599440e-06 -1.02492864e-04 -3.46194829e-05
      6.19407074e-05 -4.77606409e-05 -8.42235240e-05 3.42567182e-05
      2.95862192e-05 -4.22829435e-05 1.76081937e-06 9.04125409e-05
      4.70411615e-05 2.18789046e-05 1.14767536e-04 -3.19855899e-05
      -6.61409285e-05 -2.80334643e-05 3.09976786e-05 3.20902000e-05
      -1.03565544e-05 3.14154931e-05 1.09400489e-05 -2.74866925e-05
      2.81296047e-06 -2.21051741e-05 -1.79100625e-05 -4.69939323e-06
      9.68267705e-05 1.41159580e-05 9.29426824e-06 -2.44199146e-05
      -4.00436220e-05 -2.75663151e-05 4.28534076e-05 1.46611210e-05
      1.89696457e-05 -1.57154375e-06 4.87299767e-05 -6.88354157e-06
      2.93323301e-05 7.41394933e-06 1.17632635e-05 1.77154143e-05
      -2.23063853e-05 7.70023107e-05 9.33524207e-05 4.87919169e-05
      -6.67656641e-05 -2.47386724e-05 6.54247197e-05 7.16173308e-05
      -6.30797658e-05 -2.56113490e-05 3.26413465e-06 -2.01684288e-05
      1.35553146e-05 -6.49435242e-06 3.77231190e-05 -3.02225944e-05
      -1.76316571e-05 2.95148111e-05 1.19907081e-05 -8.05114450e-06
      -2.42165443e-05 2.32671428e-05 1.73590743e-05 6.89437002e-05
      -8.47778483e-06 7.85916272e-05 8.17134423e-05 1.03903913e-04
      -1.37877660e-05 2.36037363e-06 -5.20948888e-05 1.10136434e-05
      1.44016652e-04 6.37099292e-05 2.06278437e-05 1.14560598e-05
      6.53420793e-05 -8.09853300e-05 -1.07698921e-04 6.65195403e-05
      5.79106527e-05 8.68779171e-05 3.52140451e-05 -4.20194592e-05
      6.68851135e-05 3.60261438e-05 4.81152638e-05 -6.34184653e-06
      6.07151451e-05 2.64362025e-05 -4.89761260e-05 1.94318254e-05
      -3.18788698e-05 2.75875482e-05 6.54476753e-05 -1.25181450e-05
      2.85994774e-05 -5.77642277e-05 -1.13002689e-05 1.04847073e-04
      4.69741026e-05 -7.86645523e-06 -3.62574974e-05 -6.14697055e-05
      4.50447660e-05 -3.45789776e-05 -1.45120532e-04 -6.59424841e-05
      -8.12540165e-05 -1.92452790e-05 -2.71380100e-06 2.00213217e-05
      -2.58968757e-05 -7.49687533e-05 -2.36541109e-05 2.90737862e-05
      -5.58633837e-05 4.25020335e-05 -3.77746292e-05 2.40098543e-05
      -6.10897550e-05 -9.57266966e-05 2.04430035e-06 1.18424932e-05
      9.04654953e-05 -1.71117081e-05 -8.30667996e-05 -4.86018616e-05
      -3.11118274e-05 5.30913057e-05 -1.20102288e-06 -6.86617714e-05
      -3.66979148e-05 3.24095599e-05 6.38856363e-05 1.42463132e-05
      7.34368768e-06 5.70869306e-05 -1.42844028e-05 -7.96299992e-06
      6.90064826e-06 -8.71192879e-06 8.76690319e-05 9.48451561e-05
      5.13162922e-05 -5.10933714e-05 -4.94797896e-05 -4.54274486e-05
      5.86486276e-05 3.69600675e-05 1.09047714e-05 -2.27474502e-05
      -5.88207768e-05 -2.00579198e-05 -1.41266610e-05 -1.02446698e-04
      1.73640035e-06 9.55565265e-05 9.46868568e-06 9.19227750e-06
      -1.53886394e-05 -5.05614407e-05 6.17622427e-05 4.54049332e-05
      1.52534694e-05 2.90750577e-05 2.01264229e-05 -5.23308481e-05
      -5.97121216e-05 3.86511711e-05 -3.94018607e-05 2.69080592e-05
      3.51056151e-05 -9.86524683e-05 -1.24693921e-04 -6.46614208e-05
      -6.49600261e-05 -4.42465425e-05 3.09733441e-05 2.38260855e-05
      3.75991767e-05 5.05096759e-05 1.08273241e-04 7.88095786e-05
      5.13710875e-05 -1.59249994e-05 -3.67328503e-05 -3.88457229e-05
      -3.12650736e-05 4.78194452e-05 7.47032391e-05 8.43202288e-05
      3.89280431e-05 -7.99194095e-06 -1.88999238e-05 1.75670339e-05
      2.28947119e-05 9.50359172e-05 6.07022666e-05 4.72029660e-06
      4.86779063e-05 -2.42335391e-05 -1.30667231e-05 -1.17952746e-04
      -7.72828685e-07 -3.73619696e-05 -9.83301106e-06 1.59448435e-04
      7.91225684e-05 1.37132965e-05 1.31917895e-05 -7.36992370e-05
      2.86536833e-05 3.00575684e-05 2.46774380e-05 -2.58668369e-05
      -1.39464337e-05 9.27173278e-06 -8.41076180e-05 -1.08541833e-04
      -5.96983409e-06 6.54035321e-05 2.76461578e-05 3.17885997e-06
      4.31170629e-05 -8.40867779e-06 8.02818431e-06 4.40671693e-06
      -1.77620259e-05 7.63310818e-05 3.22047890e-05 5.85574344e-05
      3.11658914e-05 4.85392811e-05 4.25779544e-05 3.12088923e-05
      -5.96517793e-06 -6.88379150e-05 -8.49615026e-05 -2.67307278e-05
      2.73909773e-05 -3.37884667e-05 -8.47190620e-07 -3.25008223e-05
      -3.58685356e-05 2.89028976e-05 4.43876270e-05 3.24727334e-05
      3.09598836e-05 -4.12404552e-06 1.20264867e-05 -1.97366699e-05
      7.38676226e-06 1.82530530e-05 2.89813652e-05 3.27543348e-05
      -7.88191683e-05 2.70053824e-05 -5.18939378e-05 -7.54188204e-06
      2.55740651e-05 -9.40570826e-05 -4.55053196e-05 -5.55717907e-06
      6.31669172e-05 -5.66503331e-05 5.74498154e-05 -8.61998051e-05
      -4.26293482e-05 -8.67443523e-05 -2.86332397e-05 9.52200717e-05
      -5.30445186e-06 3.90906243e-05 7.27542647e-05 7.48860184e-05
      1.15830862e-05 7.29587600e-06 4.67965401e-05 2.00250361e-05
      1.85187514e-06 -1.95209286e-05 -2.04118824e-05 -1.09529261e-04
      1.46252733e-05 6.00931235e-05 3.21499683e-05 2.93110988e-05
      1.81583400e-05 1.92316456e-05 3.53467512e-05 -5.85532362e-05
      -6.18403865e-05 -9.68756376e-06 2.96270150e-06 -4.39812393e-05
      -5.22043229e-05 8.15223102e-05 -6.11941186e-06 -1.87320165e-05
      -1.34493457e-05 -1.26028986e-04 5.59759465e-05 9.94156217e-05
      3.48819049e-05 8.38477645e-05 -1.27403227e-05 1.70045951e-05
      8.84856418e-05 8.34481762e-05 4.26568949e-05 -5.10071623e-05
      6.24682725e-05 9.18350124e-05 8.26628020e-05 2.75684488e-05
      2.54712049e-05 4.51663000e-05 -2.82051060e-05 -3.33847493e-05
      -3.93472656e-05 8.84577457e-05 1.21310244e-04 1.00142242e-05
      -4.51126725e-05 1.07531581e-04 1.35050985e-04 8.62517845e-05
      -6.75201009e-05 3.20787376e-06 -5.11155531e-06 -9.25699278e-05
      -5.62713794e-05 2.81970533e-05 2.53046765e-05 -5.86207443e-06
      -4.03399918e-06 1.62130673e-05 3.03736724e-05 -2.85309434e-05
      5.92037250e-05 -2.27297842e-05 -1.28790498e-05 -9.50907706e-05
      -3.88304761e-05 6.93803377e-05 1.58600087e-05 -7.69294347e-05
      -5.54484686e-05 1.02268114e-05 1.07826134e-04 -6.31608200e-05
      -1.98569724e-05 4.13699345e-05 1.43556808e-05 -3.15436846e-05
      3.96316209e-05 5.66309718e-05 2.63557740e-06 2.19146150e-05
      6.45051623e-05 1.02371196e-04 -1.37174729e-05 -3.47221714e-07
      2.04326716e-05 -8.19257039e-05 -3.93599512e-05 -1.51340000e-05
      -3.24851026e-05 -5.70531047e-05 -1.14155036e-05 -6.80386001e-05
      -1.06917541e-04 -3.23614768e-05 3.21042426e-05 5.55755687e-05
      6.70499867e-05 4.29011052e-05 8.04185329e-05 5.59880718e-05
      1.42042845e-05 2.01125044e-06 1.83466382e-05 6.58015279e-06
      9.30991519e-05 -3.78142358e-05 -2.14663796e-05 -1.87852438e-05
      9.31737522e-05 -7.79131660e-05 -1.01305624e-04 -2.38881494e-05
      -5.81773820e-05 -4.43307908e-05 3.33989847e-05 -3.58748584e-05
      6.94199844e-05 1.02372142e-05 -3.50188566e-05 -2.69178872e-05
      -1.16529467e-04 -4.94054875e-05 7.63729331e-05 1.79901152e-04
      6.45951104e-06 1.87998412e-05 1.06280422e-04 3.58392717e-05
      8.28994525e-05 -1.39270869e-05 -6.09200142e-05 3.44590944e-06
      -3.64823450e-06 -4.75512716e-05 1.21870353e-05 2.67031246e-05
      -4.99345952e-05 8.23892242e-06 8.53704041e-05 1.61735268e-04
      7.33782508e-05 6.92979884e-05 4.31770895e-05 -5.56829982e-05
      -9.86218874e-05 4.51256783e-05 -3.00202664e-05 -6.15538374e-05
      -4.93589505e-05 8.33448503e-05 1.09982966e-05 -7.82549032e-05
      -4.21554651e-05 -2.28022345e-05 3.34745746e-05 -6.59434500e-06
      -1.04442850e-04 3.14586323e-05 6.01842039e-05 3.50344453e-05
      9.05500492e-05 1.58495950e-05 2.52759091e-05 -9.61185287e-06
      -2.18878449e-05 -4.65721241e-05 3.75176132e-05 4.15318063e-05
      -3.04927926e-05 3.21581283e-05 4.67589198e-05 -1.14131355e-04
      6.58573044e-05 -2.50221979e-06 4.30516411e-05 6.31809016e-05
      2.73486021e-05 -3.44354703e-05 1.49458965e-05 1.66819882e-05
      4.05693245e-05 3.42291446e-06 -3.41299237e-05 -5.48393073e-05
      -2.59370427e-05 5.64975780e-05 2.95200207e-05 6.19284265e-06
      5.37598462e-05 2.44668572e-05 -3.16118385e-05 -1.21854137e-04
      -6.00729545e-05 5.10128257e-06 -4.70898594e-05 -1.09560300e-04
      2.89516393e-05 3.51228045e-05 5.57488747e-05 -1.48852314e-05
      4.10734037e-06 -1.21876556e-05 5.92354954e-05 3.56887176e-05
      1.43390989e-05 7.26028838e-06 -4.01612924e-05 -1.12282207e-04
      -5.04378950e-05 -2.40675326e-05 4.67913367e-07 6.42402210e-06
      2.87306375e-05 -1.71251049e-05 -8.59885768e-05 -5.49470242e-05
      -4.52373060e-05 -1.82152198e-05 -6.83384205e-05 -3.96432661e-05
      2.09957234e-05 3.90485002e-05 5.66770759e-05 -5.69011991e-06
      1.02276004e-04 3.47345085e-05 -3.38949394e-05 -1.72387827e-05
      1.33554058e-05 6.23571686e-05 -3.60801437e-06 3.30948315e-05
      5.14361855e-05 -8.74655427e-07 -9.70618858e-05 -4.93559055e-05
      5.05502940e-05 1.98288944e-05 6.18413615e-05 2.44941862e-06
      -4.33820423e-05 9.10739982e-05 4.46687009e-05 -2.41719608e-05
      1.42117686e-04 5.43798706e-05 2.98027544e-06 7.29454696e-05
      4.34487956e-05 -1.93652650e-05 2.86878330e-05 -1.33517924e-05
      1.06656316e-05 -1.24564336e-04 -2.77490963e-05 -1.79829531e-05
      -9.04893750e-05 4.79362352e-05 -8.26005416e-05 -1.28195752e-04
      -8.51444129e-05 9.18040168e-05 5.75729973e-05 -6.02880718e-05
      -7.43505152e-05 3.70159978e-05 1.01831130e-04 -4.25788930e-05
      -1.30874338e-04 -8.90672163e-05 -7.89787955e-05 -5.38825479e-05
      -5.70280645e-05 5.29475728e-05 -3.88180451e-05 -9.43755731e-05
      1.06271336e-05 -7.28519735e-05 -5.77792889e-05 -6.46404005e-05
      -1.24841696e-04 3.08071867e-05 5.77711071e-05 -8.34969342e-07
      1.00804973e-04 1.00629168e-05 2.89129985e-05 -3.25906076e-05
      8.21460635e-05 7.79404654e-05 1.68314855e-05 2.99757467e-05
      4.67626778e-05 -4.84094708e-05 -9.69391749e-06 -5.26530857e-05
      4.38908273e-06 -1.71447064e-05 -5.35636027e-05 -1.13313115e-04
      2.48727538e-05 3.76948810e-05 -6.88568034e-05 -5.44143877e-05
      -4.90285565e-05 -5.86101814e-05 -3.66678323e-05 -4.57368651e-06
      6.54374089e-05 6.04320030e-06 -3.62205355e-05 -4.79619302e-06
      -2.53621110e-05 7.14141061e-06 -6.51934715e-06 4.26760971e-06</_>
    <_>
      1.48788138e-04 1.57266433e-04 2.76292558e-04 2.61501264e-04
      7.14717098e-05 7.42992925e-05 -2.30292039e-06 -1.00247402e-04
      -1.47769433e-05 8.10368656e-05 9.04188419e-05 2.58001266e-04
      2.61355617e-05 -3.34534961e-05 7.60185358e-05 8.52652374e-05
      1.81066585e-04 7.66486410e-05 8.50832730e-05 -5.75488775e-05
      -7.85893426e-05 6.72448659e-05 -9.32469848e-05 4.81032039e-05
      9.70234178e-05 -3.10429095e-05 -1.70207943e-06 1.33811673e-05
      2.14371557e-05 -2.83889585e-05 -4.07649859e-05 3.69845657e-05
      6.53727184e-05 7.19406453e-05 5.65137670e-05 1.77344598e-04
      6.07615766e-05 4.49233958e-05 4.79160335e-05 -2.65701765e-05
      -1.65755064e-05 5.92802826e-05 8.31942307e-05 1.06407111e-04
      1.27045438e-04 6.66129490e-05 -1.92113566e-05 -1.29846139e-05
      5.64392503e-05 -9.16525605e-05 3.78004224e-05 7.43594283e-05
      6.67264685e-05 1.28047817e-04 1.34367452e-04 7.59643299e-05
      1.24247046e-04 2.56419244e-05 -3.48691938e-05 2.56461790e-05
      -6.41786246e-05 3.57174140e-05 -6.48613495e-05 1.67469800e-04
      1.21172721e-04 2.38453740e-05 6.07093752e-05 -4.60132505e-05
      -4.68615981e-05 -3.79663070e-05 -1.57748800e-05 -4.69888655e-05
      -2.82851852e-05 -8.84489509e-07 -2.13693966e-05 1.87420635e-04
      9.18601727e-05 8.35024694e-05 6.24631430e-05 2.99561307e-05
      1.37687921e-05 7.72816711e-05 7.84247968e-05 4.58242102e-05
      -8.17927939e-05 1.00813646e-04 1.27115418e-04 6.67431887e-05
      4.29531065e-05 -1.52110970e-05 -2.27075361e-05 2.95470563e-05
      -3.00105366e-05 5.50750810e-05 9.31029354e-05 1.12345420e-04
      5.79636398e-05 4.65671146e-05 -6.28479302e-06 -5.09647689e-05
      1.30234839e-04 4.65308949e-05 7.09874221e-05 8.51841833e-06
      1.70558851e-04 -1.05114768e-05 1.21747747e-04 1.04914827e-04
      4.89765171e-06 -6.06050962e-05 2.60631477e-05 2.22196482e-04
      -9.86075174e-05 -8.64282338e-05 1.00373167e-04 3.31245137e-05
      -3.21247244e-05 1.07637534e-04 8.24297313e-05 -9.44908879e-06
      9.65927302e-06 2.75463517e-05 3.73588882e-05 -4.18236095e-06
      9.90103799e-05 1.17366741e-04 6.49724188e-06 -2.47250809e-05
      4.61367599e-05 -7.72975327e-05 2.08353435e-06 3.12999828e-06
      8.23468290e-05 6.38659685e-06 -1.18636555e-04 -1.00640536e-04
      -3.43818501e-05 4.15144350e-05 3.56157325e-05 6.28615235e-05
      -4.45955411e-05 5.97445833e-05 1.88440798e-04 4.50821972e-05
      -1.22636135e-04 -9.14427292e-05 -8.73668178e-05 -4.66392121e-05
      -1.26604908e-04 3.63985419e-05 -9.94106358e-06 -1.05579595e-04
      -5.15060401e-06 4.22363373e-05 9.01501771e-05 2.98119066e-05
      5.55520855e-05 -7.68025275e-05 6.97435316e-05 2.35783318e-06
      4.54144538e-05 8.47084521e-05 4.99333146e-05 -1.09549301e-05
      3.72023278e-05 -1.59913267e-04 -5.37676860e-05 7.30715983e-05
      9.36739889e-06 8.42779446e-06 1.14974799e-04 6.84285988e-05
      -5.48959324e-05 -3.41342347e-05 9.80992409e-05 1.95138873e-05
      -9.60754478e-05 -3.14009776e-05 6.95760609e-05 4.55556510e-05
      -9.73471833e-05 -1.56085458e-04 -1.16938092e-04 2.15225300e-05
      9.49021560e-05 -5.84357040e-05 7.75822773e-05 3.20401705e-05
      1.07941174e-04 3.45782864e-05 2.22868985e-05 1.60427626e-05
      -3.08079780e-06 -3.28265196e-05 -3.79649864e-05 -8.66807022e-06
      3.19256251e-05 -2.12229970e-05 -4.81361385e-05 -2.61143032e-05
      3.42552230e-05 -8.75494734e-05 3.29596405e-05 2.88788451e-05
      2.02277488e-06 9.33540068e-05 8.60584332e-05 8.92694443e-05
      6.06609974e-05 8.93311008e-05 8.42948066e-05 1.17538933e-04
      -3.06008078e-05 5.37304322e-06 -1.12736416e-04 -8.44415918e-05
      -1.31251974e-04 1.91394374e-05 -2.85962233e-05 -8.85121117e-05
      -3.24573448e-05 6.87100191e-06 5.17548069e-05 4.06495965e-05
      1.45177937e-05 5.21813945e-06 -3.61846178e-05 -4.28056046e-05
      -1.56087481e-04 1.73113585e-05 2.38674493e-05 1.11377212e-05
      1.33779859e-05 -1.34221074e-04 -1.56602866e-04 -2.71192712e-05
      -1.94216791e-05 -5.62701098e-06 -5.32879858e-05 -2.28475838e-05
      -8.80938205e-06 6.81459642e-05 -1.39342737e-05 -6.46064873e-05
      1.41503169e-05 3.54004333e-05 2.04168609e-05 -8.79067229e-05
      -1.32517089e-04 7.30155298e-05 2.24738505e-05 6.59442740e-05
      -2.18203131e-05 -4.32689740e-05 -4.31959488e-05 4.80927556e-05
      -1.19239494e-05 -1.16372976e-04 -7.86006967e-06 -3.47117057e-05
      5.21679030e-05 -8.79771733e-07 -8.74398102e-05 -7.28160448e-05
      -1.00699788e-06 1.28344807e-04 5.35536274e-05 -2.70096771e-05
      -3.67197499e-05 -5.21093898e-05 -5.67244351e-05 3.80787023e-05
      -1.03758277e-04 -6.77966091e-05 6.51640357e-06 -7.80283081e-05
      -3.45987537e-05 8.29886121e-05 9.47833760e-05 -3.15707184e-05
      3.69499321e-05 -4.98353875e-05 -1.18710792e-04 -9.73436909e-05
      -9.11763927e-05 6.45104519e-05 1.18923126e-04 -3.25137116e-05
      -7.65916047e-06 -5.64776274e-05 -9.22335457e-05 -7.23031844e-05
      -2.56677467e-05 4.90289385e-05 -9.28966329e-05 -1.09286433e-04
      -5.82063403e-05 5.64324682e-06 3.85616841e-05 6.38961137e-05
      -3.67761058e-05 3.48955764e-05 1.05960062e-04 -2.01456214e-06
      -8.71070370e-05 -7.27391216e-06 3.33823591e-05 -6.96797797e-05
      6.73287286e-05 5.82425673e-05 1.26609797e-04 1.27051608e-04
      1.76091307e-05 8.96718630e-05 -1.04307210e-05 -4.33010100e-05
      -9.32795010e-05 -9.56185177e-05 6.96708667e-05 7.16798386e-05
      2.21707756e-04 1.45873073e-05 -9.54504649e-05 -1.77642301e-04
      -1.47283554e-05 7.49515748e-05 1.93018914e-05 -1.03405757e-04
      1.25549406e-07 -3.02382650e-05 1.26081397e-06 9.46990185e-05
      1.36110510e-04 8.17595574e-05 1.00539779e-04 -1.16273084e-04
      2.88237788e-05 -5.27525481e-05 -1.20914945e-06 -2.82012679e-05
      1.74925299e-05 3.94327981e-05 1.37986150e-04 -2.38663051e-05
      -3.91706526e-05 -2.44556322e-05 -1.25196239e-04 4.90039747e-05
      -9.05794586e-05 -7.68432292e-05 -7.05908533e-05 -3.02982198e-06
      1.20565535e-04 -2.49811947e-05 1.00117846e-04 -3.91150170e-05
      7.13309055e-05 7.65675868e-05 3.34363176e-05 7.71504128e-05
      2.76100600e-05 1.62341348e-05 -4.16273042e-06 2.09561949e-05
      -1.94885815e-05 -1.05368767e-04 -5.41127883e-05 1.22760015e-04
      -1.21006897e-05 2.92636905e-05 -6.26857363e-05 -1.04739804e-04
      -1.03375416e-04 -5.11255130e-05 2.13616167e-05 1.34589733e-04
      -3.71139977e-05 -4.73053988e-05 1.17823774e-05 3.79269004e-05
      3.01199980e-05 -9.07449066e-05 -6.99928059e-05 -8.70505173e-05
      1.02420117e-05 -1.85270674e-05 2.14487482e-05 2.23346124e-05
      5.15453758e-05 5.54499420e-05 -3.11790609e-05 -2.36624383e-05
      -4.77378453e-05 -1.19009246e-06 -8.97464906e-06 -5.01334507e-05
      -1.90565552e-05 3.69530221e-06 5.36921652e-05 -2.49863970e-05
      2.27430664e-05 -5.85925009e-05 -9.80812474e-05 -3.95662719e-05
      -1.60426498e-05 -3.05428548e-05 7.40566838e-06 2.21264509e-05
      -1.49363113e-04 -5.68701216e-05 -4.11504407e-05 -1.29750944e-04
      5.00134993e-05 -3.07001901e-05 -2.50274297e-05 7.08160860e-06
      7.16325667e-05 8.32496007e-05 2.87685198e-05 -5.58111060e-05
      4.00285853e-06 -2.25482727e-05 -2.92882869e-05 -4.05007304e-05
      -7.29528838e-05 8.92129628e-06 -2.27102028e-05 1.50771039e-05
      -6.64742402e-05 2.35266434e-05 1.13086149e-04 -9.66727239e-05
      -7.81975759e-05 4.12654954e-05 -3.90331916e-05 3.14059289e-05
      3.82220751e-05 1.14904424e-05 -7.08753723e-05 1.18406285e-06
      8.41462497e-06 -1.17999471e-05 -2.94655310e-05 -5.89338788e-06
      -5.79947555e-05 -1.12385744e-04 -1.35895316e-05 7.34627538e-05
      2.34406452e-05 -1.27346764e-04 6.52460876e-05 -5.45504299e-05
      2.16179742e-05 -3.84891355e-05 -1.24375249e-04 -7.88178077e-05
      7.16403301e-05 4.18968993e-05 9.73601436e-06 -5.01730028e-05
      -1.34591937e-05 4.53188914e-05 1.17570366e-04 -2.83168811e-05
      -2.87711646e-05 9.63609855e-05 7.03486294e-05 4.53720459e-05
      -4.29538632e-05 8.34590464e-05 -3.57948848e-05 -2.54377464e-05
      -2.58409891e-05 5.03135852e-05 -7.03787664e-05 -2.63272523e-05
      6.25700195e-05 -9.00629893e-05 -8.66882783e-06 2.26893280e-06
      4.99796042e-05 4.20216493e-05 4.39948817e-05 -9.17769682e-07
      -4.68304570e-05 -8.27042968e-05 -9.86165032e-05 1.00164834e-05
      -1.45167569e-05 -2.08652091e-05 -3.51330418e-05 -8.37154657e-05
      -1.29414140e-04 -1.58232924e-05 -1.06906164e-05 -7.45081343e-05
      8.86008536e-07 -2.43510276e-05 -1.02137026e-04 -1.24333659e-04
      -7.88270627e-05 -6.31954972e-05 -6.19705315e-05 9.49247078e-06
      1.01371166e-04 -1.40116885e-04 -1.37365685e-04 3.48672756e-06
      -8.96963538e-05 9.01531457e-05 4.12138115e-06 3.58824473e-05
      5.82366993e-05 7.47402810e-05 6.40700528e-05 -2.89343825e-05
      6.55261611e-05 1.64438228e-04 7.92107458e-05 3.07211958e-05
      4.28362073e-05 5.34691135e-05 2.01212988e-05 9.62713148e-06
      1.06606691e-04 5.98451370e-05 1.57699338e-04 2.76137525e-05
      8.03413332e-06 4.05373285e-05 -3.22403298e-06 -3.68378023e-05
      5.51431949e-05 -8.22552174e-05 5.64060792e-05 5.73655052e-05
      2.54890510e-05 -1.11735399e-05 -3.87173459e-05 -5.31015248e-05
      -4.51522028e-05 9.23838525e-05 -3.44901091e-05 -1.07454371e-05
      -3.85323765e-05 7.55799847e-05 5.22184782e-05 -4.79851906e-07
      6.95566123e-05 -5.28461751e-05 -1.35885712e-04 -3.92133443e-05
      -7.74225045e-05 -1.29153632e-05 -9.15485361e-06 -4.21251525e-06
      7.55407673e-05 1.20503437e-05 -7.70442857e-05 -6.54976830e-05
      4.43510908e-05 -5.78293402e-05 -9.78900134e-05 -3.74840965e-05
      -7.87908430e-05 -2.38203738e-05 -9.45394131e-05 1.77870425e-05
      1.11974638e-04 -4.59742441e-05 -1.07698441e-04 3.97430194e-05
      3.99751480e-05 -1.21059340e-04 -5.23704184e-05 4.73593173e-05
      7.39902825e-05 1.03707780e-05 3.36102785e-05 7.26842336e-05
      -3.67680223e-05 -8.50898141e-05 -1.22346410e-06 9.42749684e-05
      -2.66507459e-06 5.62503328e-06 5.84987938e-05 -6.55556432e-05
      5.02703078e-05 8.96095298e-05 2.78613261e-05 1.58271159e-05
      5.14207750e-06 9.49946989e-05 -2.93477078e-05 4.06078434e-05
      2.59643275e-05 1.00078876e-04 3.65168235e-05 2.17326542e-05
      4.44362013e-05 1.24508180e-04 9.45428201e-06 3.44783916e-06
      -1.41899945e-04 -7.48566090e-05 4.78143738e-05 1.31436070e-06
      -1.70827534e-05 1.47321392e-04 -2.49555433e-05 -1.00558909e-05
      -2.90867447e-05 -1.37330106e-04 -7.21649558e-05 -3.51020863e-05
      -5.67956522e-05 -9.80154891e-06 6.52636008e-05 -1.37438677e-04
      1.05772524e-05 6.73335526e-05 3.48489666e-05 -4.80636991e-05
      -6.47507331e-05 -9.42311017e-05 -9.32600669e-05 -2.03257496e-05
      1.30119597e-05 -4.00084282e-05 -3.95808747e-05 4.58198883e-05
      1.14831651e-04 -1.84529199e-05 -1.01621772e-04 -2.29479720e-05
      -3.72940012e-05 2.07939156e-05 1.73322660e-05 6.74175171e-05
      -2.61873847e-05 5.24513162e-05 1.04274761e-04 -3.16945670e-06
      -6.12378426e-05 3.18775747e-05 -1.31127919e-04 -3.66195854e-05
      -7.23428529e-05 7.81308627e-05 5.96252903e-06 8.41535875e-05
      4.31420585e-06 2.88120464e-05 7.07016734e-05 -4.71654821e-05
      -5.99593477e-05 -6.85676150e-06 1.13489485e-04 3.56171004e-05
      -5.81376116e-05 2.37960103e-05 -9.60757916e-06 -4.15441391e-05
      9.30047609e-05 1.91018644e-05 2.37459935e-05 1.09844688e-04
      1.44612432e-05 1.11253241e-04 4.35634138e-06 4.01483485e-05
      -2.70597029e-05 6.88266664e-05 -9.64231367e-05 -1.30287357e-04
      2.16726712e-05 -5.79777634e-06 3.79735902e-05 3.26886584e-05
      6.36946279e-05 1.15451815e-06 -5.44204249e-06 3.68178662e-05
      1.10477144e-04 3.85029489e-05 6.72274182e-05 6.50380434e-06
      -1.09962057e-04 -4.60055671e-05 -4.08170172e-06 -5.94123667e-05
      -1.07781409e-04 -2.90799562e-05 -2.51675883e-05 -5.92132455e-05
      -2.61387067e-05 -4.54263500e-05 -5.55859260e-05 2.44526618e-05
      1.01441445e-04 1.07142541e-05 6.45935143e-05 2.62386561e-06
      1.31055940e-05 -8.19652560e-05 -4.63907008e-06 5.20872391e-06
      2.52862501e-05 -4.87131620e-05 -6.74777129e-06 9.37281948e-06
      9.62745544e-05 1.29781736e-04 -3.18794155e-05 -7.67197489e-05
      -7.95850938e-05 -1.42609370e-05 -3.83804627e-06 8.17440668e-05
      1.54360914e-05 -2.11069328e-05 5.67264351e-06 1.17617812e-04
      -2.06204732e-05 1.09083943e-04 1.76135363e-04 6.70447116e-05
      3.99925593e-05 -1.53549336e-05 5.70157790e-05 -9.34370655e-06
      3.80365054e-06 -1.51404288e-06 9.57241355e-06 -1.24021090e-05
      -7.77787409e-06 1.29650462e-05 -2.59533408e-05 1.15961659e-04
      -1.35095308e-06 8.36633844e-05 -7.30993779e-05 -6.06797767e-05
      -1.03946928e-04 -1.39855547e-04 -3.10704017e-05 4.08919223e-05
      -1.04641098e-04 -3.62884784e-05 5.47614145e-05 -5.72163444e-05
      -1.62124870e-05 -3.72919130e-05 -5.45921648e-05 2.11143015e-05
      9.23763146e-05 -1.50799315e-04 -9.27322835e-05 -4.91604187e-05
      3.92953079e-05 -2.40197933e-05 -7.78694666e-05 -2.41068719e-05
      7.02902398e-05 4.05395622e-05 1.55710477e-05 -4.68088656e-05
      -1.02732527e-04 -4.66101337e-05 -5.03127412e-05 -4.46867452e-05
      3.08781819e-05 -9.28783120e-05 -4.12644040e-05 -4.91402243e-05
      -6.87608772e-05 -1.14497801e-04 -6.65398911e-05 -4.50786210e-05
      -2.56809999e-05 4.66616948e-05 -3.85717794e-05 4.85858545e-05
      9.75224757e-05 8.98589278e-05 6.08279406e-05 -1.06115749e-05
      -5.06577308e-05 6.00369049e-06 3.84601699e-05 2.01241783e-05
      9.41348117e-05 -8.21022986e-05 -1.08309730e-04 -1.28786603e-04
      1.43644984e-05 -5.49327560e-05 -7.66146331e-05 -8.34833918e-05
      -1.15734998e-04 -9.81608318e-05 7.77552123e-06 8.70411604e-05
      3.04365785e-05 8.13066508e-05 3.29833674e-05 -1.30732615e-05
      -8.74712714e-05 -5.58447646e-05 -9.39892925e-05 -9.19168597e-05
      -7.78365938e-05 -7.03965998e-05 -5.58439715e-05 -3.67041976e-05
      1.16818694e-04 -3.33063581e-05 -4.51441047e-05 -1.40607677e-04
      2.17354664e-05 1.67214661e-04 4.17405754e-05 -7.09283413e-05
      1.18792732e-05 -6.20265419e-05 -2.43162103e-05 5.10703794e-05
      3.19877763e-05 -8.54142345e-05 4.96613684e-05 1.05961262e-04
      -1.44455553e-04 6.52618064e-06 -1.36225526e-05 -8.13061433e-06
      1.04129271e-04 1.02122634e-04 -3.24687644e-05 -5.95019665e-05
      -4.00496101e-05 -7.56724476e-05 -3.34117976e-05 -1.33640378e-05
      -2.06333752e-05 7.76701490e-05 -2.55342675e-05 4.71299791e-05
      1.08398181e-05 1.05043528e-05 1.59639298e-04 6.91065143e-05
      -5.66203271e-05 7.54453504e-05 6.00871972e-05 -3.20769468e-05
      -4.14102287e-05 -1.96804958e-05 5.53617356e-05 -4.94589131e-06
      3.98130578e-05 -3.79040830e-05 1.43784404e-04 8.35232349e-05
      6.63304018e-05 -3.83468723e-05 -9.15850615e-06 1.11017346e-06
      -6.34198877e-05 -2.55121131e-06 4.70044579e-05 -2.17542492e-05
      -1.39617754e-04 -8.65198745e-05 6.29720889e-05 5.98853476e-05
      -1.22236685e-04 3.99726705e-05 1.23207195e-04 -2.03732125e-05
      -2.82948567e-05 1.13391907e-04 9.18111709e-06 4.99476228e-05
      -1.64212197e-05 1.81275653e-04 6.50042202e-05 -2.50302764e-06
      -4.04591010e-05 8.04006850e-05 -3.83000915e-05 9.96888120e-05
      -4.17419642e-06 -9.01255680e-06 -1.84264936e-05 -1.35857488e-06
      1.65602120e-04 1.77417824e-05 -2.98277482e-05 1.76466301e-06
      3.30296680e-05 2.86782015e-05 -7.57928210e-05 -7.64268625e-05
      1.07173773e-05 -6.19538914e-05 -9.77025920e-05 -3.37906422e-05
      8.38358828e-05 3.34618016e-05 5.98909719e-05 6.70978334e-05
      7.70549159e-05 -6.37865596e-05 9.95474056e-06 -6.31103831e-05
      -7.62094760e-06 -6.80006924e-05 -1.16578136e-04 -1.71803113e-04
      -1.93422238e-04 -5.92671968e-05 -5.08430958e-06 -1.88312843e-05
      5.17466906e-05 6.58418285e-05 -6.07043294e-05 7.36168658e-05
      6.31949079e-05 9.36906872e-05 1.08174230e-04 2.65232502e-05
      2.50160210e-05 9.19899685e-05 6.31368530e-05 6.16843754e-05
      1.64631274e-04 -5.76102830e-05 -1.92364867e-04 -5.83131477e-05
      -2.92646691e-05 6.72382084e-05 -1.02572871e-04 -1.22356301e-04
      7.06030164e-07 6.97066789e-05 -5.48117641e-05 1.77876082e-05
      6.98663425e-05 9.67684082e-06 2.77347353e-05 -6.09962735e-05
      -1.58526556e-04 4.77427748e-05 2.32384715e-04 -1.23984837e-05
      -8.00513444e-05 4.15356844e-05 1.12474772e-05 1.06789957e-04
      -1.55781418e-05 -2.18863152e-05 -1.01701262e-05 2.44644216e-05
      6.66898341e-05 7.64786455e-05 -1.87418627e-05 -1.73350520e-06
      -8.84977544e-06 -7.13631016e-05 -9.57950542e-05 -9.40168593e-06
      -7.14524140e-05 -1.19156939e-05 -6.06685207e-05 -2.00260856e-05
      -7.01069657e-05 -5.46401352e-05 9.52081173e-05 -2.41937905e-05
      -5.94686971e-05 -9.52936243e-05 -1.12157169e-04 -1.40586766e-04
      8.73291901e-06 -4.82718133e-05 -5.30669240e-06 -3.81953651e-05
      2.26264183e-05 -1.26749641e-04 -9.98390096e-05 9.09778646e-06
      -7.11699295e-06 9.61061742e-05 1.07144606e-05 3.15131365e-05
      4.99064117e-05 1.09033477e-04 6.35489632e-05 -4.44536527e-05
      -8.47729025e-05 -3.43339525e-05 -2.20835955e-05 7.44055797e-05
      7.36485599e-05 1.42184217e-05 3.57555509e-05 6.97002361e-06
      -4.37631970e-05 4.85552955e-05 -8.15447584e-06 7.71311825e-05
      1.57890157e-04 1.06952379e-04 -1.34414431e-05 7.62757118e-05
      -1.12512615e-04 -9.39125948e-06 7.59397590e-05 -8.47509727e-05
      1.99994520e-05 2.78511743e-05 -2.16587177e-05 -7.35241920e-05
      2.41831858e-05 -1.19294782e-04 1.82795684e-05 -2.90799453e-05
      4.59587045e-06 7.59527757e-05 -3.13639721e-05 -5.81356726e-05
      -7.69019898e-05 -6.01450665e-06 7.63681746e-05 -6.73537506e-05
      1.26971399e-05 -2.01197781e-05 -2.72652287e-05 4.96418579e-05
      -5.61870293e-05 1.27844003e-04 1.41397559e-05 8.75381011e-05
      -3.31463002e-06 9.72857306e-05 8.75589685e-05 2.48646702e-05
      -2.02379601e-06 -4.15279210e-05 -6.72168389e-05 -1.75856359e-04
      -9.17710531e-06 -1.04930958e-04 -1.24795788e-05 5.63135582e-05
      1.34354006e-04 8.27534459e-05 4.49805957e-05 2.29644284e-05
      -4.31700801e-06 -7.55440997e-05 3.56417549e-05 6.87543434e-05
      -7.95694814e-06 -4.18644340e-05 1.03221137e-05 1.45114827e-04
      -3.36716948e-05 1.41284809e-05 1.82729600e-05 -1.10928013e-04
      -1.26420373e-05 -1.63222758e-05 -6.91528985e-05 -2.88003284e-05
      1.21585554e-05 1.03389291e-04 -7.25492209e-05 -4.02824699e-05
      3.32608215e-05 7.97503890e-05 -1.56437873e-05 -1.73180175e-04
      -3.89089946e-05 -1.40318643e-05 6.22091247e-05 1.51692773e-04
      -9.58678211e-05 2.09434274e-05 -6.16166517e-06 -4.91978562e-06
      2.70472310e-06 -8.37786938e-05 4.10799985e-05 2.67099458e-05
      2.35158259e-05 3.21341940e-05 -6.66132837e-05 4.22342891e-05
      -1.80340212e-05 2.08046913e-05 4.43480712e-05 -5.96297505e-05
      -2.79405413e-05 4.69157821e-05 -1.68374791e-05 -8.63638415e-05
      -2.07038647e-05 -4.12691334e-05 5.49825882e-06 2.74305021e-05
      4.73308100e-05 4.75071611e-05 4.93034640e-05 2.18904297e-05
      7.15306596e-05 1.86915113e-05 -1.35632445e-05 -5.20675458e-05
      -5.60059307e-05 1.27445828e-05 -8.48437194e-05 -1.73708759e-05
      4.90960301e-05 -3.88477274e-05 -8.55790713e-05 -5.59344880e-05
      -1.28923230e-05 -4.51871898e-07 1.85329045e-05 7.36213406e-05
      1.38947318e-04 3.15302386e-05 -2.42515016e-05 -1.94851364e-05
      -5.84627123e-05 -2.14243537e-05 -5.84888803e-05 -4.90102411e-06
      1.01610596e-04 -7.12684705e-05 -4.37965937e-05 -1.62223714e-05
      3.41267696e-05 9.95010705e-05 -1.32052546e-05 5.13692394e-05
      9.29843809e-05 -1.77124293e-05 1.06277876e-04 9.23679108e-05
      -1.96164165e-05 2.74027007e-05 -5.56698942e-05 -2.20527068e-06
      1.83280354e-05 -5.83275942e-05 -2.51877937e-05 4.23902529e-05
      8.11192003e-05 -2.57702413e-05 9.83609498e-05 -6.88191067e-05
      5.18036395e-05 1.32178175e-05 1.38439078e-04 -8.18489862e-05
      3.36489975e-05 -4.78311267e-05 2.41632042e-05 -1.02493010e-04
      -2.56065614e-05 1.77010279e-05 6.10031893e-05 -3.10028372e-05
      2.47413609e-05 -1.45091808e-05 -8.39456843e-05 1.28053180e-05
      -8.96083511e-05 6.49675567e-05 -1.76026879e-05 -6.39284699e-05
      4.00390672e-06 7.56884174e-06 6.32638694e-05 4.27579034e-05
      4.86077079e-05 2.80414897e-05 1.45324184e-05 4.70686282e-05
      5.87382310e-05 5.39092980e-05 7.76217257e-06 2.71354975e-06
      3.10038522e-05 8.68337374e-05 1.99989099e-05 -1.12286049e-04
      8.51969307e-05 -6.35975375e-05 -2.40069476e-05 -6.02671889e-06
      -6.76418640e-05 -2.78131720e-05 6.02231703e-05 -1.17486867e-04
      -4.93623593e-05 -4.19364733e-05 8.17553446e-05 3.68879810e-05
      1.44120040e-05 -7.55499568e-05 1.68126178e-06 9.52967457e-05
      -2.87477505e-05 5.33432876e-06 -5.92984652e-05 -6.59806246e-05
      -2.11765437e-05 -1.64511657e-05 5.57003077e-05 1.11456857e-05
      4.06858890e-05 2.51475249e-05 -5.29892495e-05 6.54441465e-05
      3.58955876e-05 8.41200963e-05 1.29661959e-04 7.83746873e-05
      6.10246752e-05 4.07827101e-05 2.08020519e-05 -1.27385239e-04
      -2.81609118e-05 8.23361188e-05 -2.13322910e-05 -7.33097477e-06
      -2.97113875e-05 -5.43764218e-05 7.37903902e-05 1.31156767e-05
      2.54726438e-05 1.04798106e-04 4.74926765e-06 3.31569863e-05
      -2.27866694e-05 -1.62266551e-05 -6.34082511e-08 -9.63045240e-05
      4.03003069e-05 -1.32023604e-04 2.94619294e-05 5.24043230e-07
      1.69284140e-05 -4.70002524e-05 -6.18198683e-05 -1.15237090e-04
      2.52850714e-06 8.88775903e-05 -3.57067911e-05 -1.52059351e-04
      4.95547574e-05 7.46488004e-05 -7.27064980e-06 3.55038683e-05
      3.41637933e-05 -1.13324459e-05 -2.45812862e-05 -3.15802426e-05
      4.06180552e-05 6.67477871e-05 1.17616291e-05 -4.02050355e-05
      -1.01281723e-04 -9.44432941e-07 -3.12669290e-05 8.18626140e-05
      3.88618137e-05 -3.20905201e-05 5.95689380e-05 3.59864425e-05
      -4.95383174e-05 -2.74969043e-05 -1.04683982e-04 -1.40384553e-04
      1.41569044e-05 3.14006356e-05 -4.14723581e-06 -1.25691377e-05
      2.56149469e-05 3.16390215e-05 1.15064729e-04 2.86899422e-06
      -4.67826794e-05 1.56927817e-05 -6.38114725e-05 -1.71669701e-04
      -1.65825171e-04 3.98806060e-06 -1.00832163e-04 -1.20862096e-04
      -1.63017012e-05 -8.25001043e-05 -8.68611969e-05 1.62966371e-05
      3.06487746e-05 -3.13753371e-05 -5.87964023e-05 7.87233057e-06
      6.67300337e-05 7.91618731e-05 5.42610651e-05 1.06070846e-04
      5.42242269e-05 5.49373144e-05 2.58654036e-05 -9.10296294e-05
      8.45755567e-05 3.72679278e-05 -1.01448044e-04 -1.68918908e-04
      -3.89434717e-06 -1.05959925e-05 -1.55126778e-04 4.02650294e-05
      -8.05058226e-05 -4.91375104e-05 -2.14248466e-05 1.22611047e-04
      3.42575513e-05 5.67060124e-05 1.68840750e-04 9.06586647e-05
      1.72984637e-05 -1.04128492e-06 -3.56914643e-05 7.96072782e-05
      -9.26303255e-05 1.97093996e-05 2.45738302e-05 1.13781331e-04
      -4.65957382e-05 -1.22905112e-04 -3.42958920e-05 -6.34749858e-06
      1.82792050e-04 7.39362149e-05 -6.45118998e-05 -3.43863667e-06
      -2.99399435e-05 -8.22769507e-05 9.92139212e-06 3.93301925e-05
      7.85126322e-05 1.06738895e-04 1.93864005e-04 4.59910661e-05
      3.18381535e-05 -6.02652217e-05 1.60962190e-05 7.16094728e-05
      -1.62813603e-06 1.79004666e-04 1.65106627e-04 1.04213404e-05
      -1.29375530e-05 2.63906859e-05 1.09499371e-04 1.22472527e-04
      8.74480861e-07 -3.54069125e-05 -6.22411608e-05 -1.09775858e-04
      -1.77356360e-05 4.08810993e-05 5.33811071e-05 -2.77720701e-05
      -2.40621885e-05 7.34156711e-05 1.35043429e-05 -2.68493477e-06
      -9.32481344e-05 9.94297588e-05 4.36559858e-05 5.40494802e-05
      -9.07650756e-05 5.52964157e-05 8.67533599e-05 -4.40942786e-05
      -2.48959150e-05 8.75603801e-05 -5.88806688e-05 1.81767496e-06
      1.13159098e-04 3.98655393e-05 8.20013374e-05 4.57219321e-05
      9.53489434e-05 -3.34737051e-05 -2.35475891e-05 6.59681828e-05
      5.66808085e-05 -4.19240168e-05 -2.64693972e-05 -8.87138303e-05
      5.41432491e-05 -1.74614161e-05 1.27174484e-04 -3.42874846e-05
      -3.51213057e-05 6.38402416e-05 -9.23483094e-05 -2.30699352e-05
      -9.69530156e-05 -9.11584357e-05 -4.63354554e-05 6.50066795e-05
      -6.49867943e-05 -1.23634672e-04 -2.03908625e-04 7.66354788e-05
      4.48258761e-05 1.26681800e-04 -7.28322775e-05 -1.09440371e-04
      -5.99462437e-05 -4.35828188e-05 -4.08341621e-05 -4.62385506e-05
      -7.33536581e-05 -2.61834089e-06 -5.52783386e-05 -7.36896764e-05
      -1.68085797e-04 -1.22224257e-04 -4.18755480e-05 4.82402575e-05
      -5.86166316e-05 -1.88341455e-05 -1.30149841e-04 -5.76218990e-05
      -1.00653968e-04 -1.55849761e-04 -1.41967015e-04 -1.35861090e-04
      -3.66057393e-05 1.11917885e-04 -1.82921631e-05 3.31709889e-05
      -8.41356377e-05 -7.31454347e-05 -5.99404921e-05 -1.48137726e-04
      2.85177121e-05 1.59976684e-04 9.81696576e-05 -4.94200249e-05
      4.99168127e-05 1.65744845e-04 -4.91918436e-05 -5.59973450e-05
      -1.24465179e-04 5.39493303e-05 2.63018428e-05 1.51453321e-04
      8.54140017e-05 -6.28570924e-05 -2.02722018e-04 -1.60646538e-04
      1.12922477e-04 6.39003192e-05 2.89795171e-05 7.03178448e-05
      7.48458333e-05 -1.79385843e-05 -6.35590768e-05 -9.66581283e-05
      -7.63058415e-06 1.28931162e-04 2.35678235e-05 4.67676109e-05
      4.60027477e-05 6.17666865e-06 8.78713327e-05 1.00336838e-04
      4.69865809e-05 3.44392938e-05 6.02564214e-05 -4.30178043e-05
      -2.33297069e-05 7.33829729e-05 5.69745716e-05 -1.09111097e-05
      5.36163316e-05 -5.41509462e-06 -8.52991832e-07 4.02780533e-05
      6.10323696e-05 1.30447545e-04 6.70615555e-05 3.04735477e-05
      1.61562366e-05 8.45753020e-05 8.25989337e-05 3.87971668e-05
      2.71871158e-05 3.87082437e-05 5.58206557e-05 3.60668128e-05
      -9.86001614e-05 -4.61537784e-05 1.85624303e-04 8.63566092e-05
      -1.38642627e-05 2.35684711e-05 6.97873475e-05 2.31929826e-05
      -1.34972783e-04 4.45617152e-05 1.63758159e-05 -7.66292724e-05
      2.13603762e-05 -3.25814071e-05 3.73227012e-05 -9.17928701e-05
      -2.23183888e-05 -1.41653058e-04 -3.57104291e-05 1.43263955e-04
      2.74792592e-06 1.16645560e-05 6.01980501e-05 -5.29101490e-05
      4.47506354e-05 -2.42191345e-05 -1.83789580e-05 -7.26180151e-05
      -5.66441959e-05 3.88214503e-05 -7.24839720e-06 -1.02807848e-04
      -7.07579675e-05 8.66219671e-06 4.88323458e-05 -3.89049092e-05
      -4.46594422e-05 -1.09104927e-04 1.38951757e-04 4.73369364e-05
      8.25423413e-05 -4.28679814e-05 7.31113032e-05 1.42287927e-05
      -1.28275869e-05 -7.32457484e-05 1.26859159e-05 -6.06164213e-05
      -2.47489061e-05 3.19231840e-05 -5.77574428e-05 -4.30976070e-05
      2.23871375e-05 6.18194463e-05 7.57188027e-05 -1.18927739e-04
      -3.43657339e-05 1.27207550e-05 1.51866610e-04 1.02097947e-04
      1.56417736e-04 4.77388385e-05 8.26518153e-05 1.83479424e-05
      1.22189391e-04 -1.53107976e-06 -1.41154320e-04 -6.87588763e-05
      -3.62493702e-05 -2.04013177e-05 7.19842910e-06 -3.99221281e-05
      -8.16460597e-05 -7.61636620e-05 -3.66611639e-05 3.77413853e-05
      -6.34437019e-05 -1.78481714e-05 1.42570017e-04 -1.01306672e-04
      -2.04110602e-05 2.74831982e-05 7.17669027e-05 5.75759441e-05
      -3.96214382e-05 -2.97282895e-05 -2.25957410e-05 6.29095593e-05
      -3.08026247e-05 -4.08805317e-05 7.41533804e-05 1.14587405e-04
      2.00197865e-05 -2.64027676e-05 -1.12076552e-04 -1.87789527e-04
      -2.00846291e-04 6.54110772e-05 5.18746710e-05 4.25702092e-05
      -2.19236117e-05 4.98185873e-05 -5.41103473e-05 -7.12180408e-05
      -2.84219004e-05 -3.71143287e-05 -1.15636385e-05 1.55665177e-07
      -5.86085080e-05 9.53225754e-05 2.82375368e-06 -1.64751655e-05
      7.43490602e-08 -1.14501985e-04 -1.32631803e-05 4.49658583e-05
      2.44959319e-05 8.94588084e-05 -6.49147405e-05 -4.08860542e-05
      6.33445816e-05 1.74056535e-04 -1.05840363e-05 -5.15503525e-05
      1.85097597e-05 9.08403672e-05 3.20217259e-05 -4.54346809e-05
      2.86899685e-05 9.78091557e-05 -1.78217635e-06 4.44154239e-06
      -2.18913399e-07 1.01844314e-04 7.26542785e-05 9.98973919e-05
      7.36422662e-05 3.45054541e-05 -5.16145374e-05 -3.02488734e-05
      -2.38087014e-05 2.38235352e-05 1.35083857e-04 1.25368215e-05
      -1.14817114e-04 -6.67876520e-05 -2.23354400e-05 6.86424028e-05
      6.41955194e-05 -3.33357566e-05 3.82532126e-05 -2.02918149e-04
      2.97614552e-05 2.71823174e-05 -2.45528245e-05 -4.98375375e-05
      -7.63330318e-05 -4.46852118e-06 4.86783101e-05 -7.66962694e-05
      -5.06834385e-06 7.37640657e-05 -6.31478906e-05 -2.80370132e-05
      -2.58494292e-05 -4.70705999e-07 9.09504015e-05 -5.26158474e-05
      5.71945566e-05 6.08598202e-05 2.54840979e-05 -2.80422719e-05
      -3.27983071e-05 4.31525659e-05 -8.83011671e-05 -3.73618059e-05
      2.43304512e-05 -1.40884658e-04 -4.63698780e-05 3.84840823e-05
      -3.79747726e-05 -1.38003379e-04 -6.77376593e-05 -7.35379872e-05
      -1.12903312e-04 8.70066833e-06 2.29756115e-05 -2.10524940e-05
      -1.33643716e-05 4.11963556e-05 5.71564997e-05 -5.76405073e-05
      2.57889187e-05 -8.65781840e-06 -1.26869389e-04 -7.36378133e-05
      2.37579043e-05 -7.25596037e-05 -2.96305861e-05 8.66606933e-06
      1.45019658e-05 -2.41517992e-05 2.88055071e-05 8.80355074e-05
      -2.80079312e-05 7.11917528e-05 4.21813747e-05 -6.40673607e-05
      3.94788040e-05 1.26161249e-04 1.08925015e-04 3.30362273e-05
      -6.72469396e-05 -2.12268078e-05 7.93605650e-05 2.21464434e-05
      2.19135254e-05 6.39739446e-05 6.52890012e-05 -2.75320581e-05
      2.20289439e-05 2.72416528e-05 -1.36199342e-05 5.25608884e-05
      6.10936986e-05 -4.23596102e-05 -6.23767210e-06 1.15775292e-05
      -1.65810652e-05 8.02065988e-05 1.25031074e-04 1.01322476e-04
      5.25793075e-05 3.31264382e-05 -2.11557062e-06 -1.68535727e-04
      -1.23942620e-04 9.72179405e-05 -3.37300298e-05 -2.24705727e-05
      1.05554373e-05 5.54094768e-05 4.03221893e-05 -9.99308177e-05
      -4.47613893e-05 2.98203686e-05 -1.66643786e-05 -1.79501676e-05
      -7.71038322e-05 -3.99260080e-06 -2.03332202e-05 -1.13469236e-04
      -6.76331474e-05 -1.83269021e-05 -1.51243512e-06 -8.49981952e-05
      -1.25110586e-04 -3.90060522e-05 1.17358155e-04 1.20654899e-04
      1.13840179e-04 6.38314959e-05 1.57367176e-04 -3.30424191e-05
      -6.53686875e-05 -9.25643762e-05 -5.22152513e-05 -6.89230510e-05
      -1.68591883e-04 -8.19334746e-05 -1.65909325e-04 -4.47859456e-05
      1.33608293e-04 2.64710106e-05 -3.20617328e-05 4.50395128e-05
      2.85300266e-05 2.90048774e-05 -3.70115231e-05 -2.51345446e-05
      -2.49946297e-05 6.61784579e-05 -8.45496907e-05 -1.11282316e-04
      -3.49770271e-05 -4.29183456e-06 -2.03148356e-05 -7.94532971e-05
      -2.96498129e-05 3.49044967e-05 8.80748848e-05 5.94243029e-05
      8.12872968e-05 -2.22914769e-05 9.45443753e-06 3.01412365e-05
      4.97009896e-05 -1.89252005e-05 5.85718453e-06 -5.25405376e-05
      -3.91286849e-05 -6.69114161e-05 -5.05265853e-05 -6.86768908e-05
      -4.66195888e-05 -5.81435961e-05 -2.82262499e-05 -4.35733127e-05
      -8.60317814e-05 -8.63090645e-06 -1.97441821e-07 -6.33868331e-05
      -4.96825487e-05 -8.98897706e-05 3.10938995e-05 -5.78537656e-05
      2.46340896e-05 -2.42417627e-05 -1.12801517e-05 -3.49362417e-05
      9.31703617e-05 7.32683257e-05 -4.92485815e-05 9.83821956e-05
      2.31677423e-05 -5.85234302e-05 -3.43913271e-05 -1.10339701e-04
      1.14000220e-04 9.08658403e-05 2.54699644e-05 -1.14928072e-04
      -6.02846158e-05 6.55161712e-05 -1.82832355e-05 -4.45158839e-05
      3.51999188e-05 7.23484482e-05 -3.48607755e-05 6.09302551e-05
      1.39717129e-04 -4.33893911e-05 -9.48572197e-05 -1.83816956e-04
      -7.49873288e-06 -8.65970651e-05 -3.64776897e-05 -8.39782369e-05
      -1.08151842e-04 6.53770476e-05 -1.57747956e-04 -3.22630403e-05
      -3.16102160e-05 8.86874259e-05 6.31870353e-05 -6.06653248e-06
      -1.51641134e-05 1.22529760e-04 1.85490353e-04 1.32233487e-04
      -3.97117619e-05 2.83683312e-05 1.11475718e-04 -4.25810140e-05
      -7.97180473e-05 5.41764275e-05 4.08861088e-05 -9.48914603e-05
      6.47130000e-05 3.33225471e-05 -2.86263185e-06 -1.77523452e-05
      -8.31147845e-05 4.49760337e-05 5.31717196e-05 1.75918631e-05
      1.07501228e-05 -6.38516503e-05 1.12855261e-04 1.01530655e-04
      -1.97809804e-05 -3.06749935e-05 4.38138559e-05 5.83889232e-05
      7.83105679e-06 2.54042170e-05 9.60012476e-05 -8.52540252e-05
      -1.69130471e-05 2.94424735e-05 8.34575476e-05 -7.24059282e-06
      -6.93587644e-05 7.08608277e-05 -7.01573736e-05 -2.39760484e-05
      1.03347202e-05 -1.62631368e-05 -9.67958476e-05 -9.40906830e-05
      3.80931415e-05 1.02400685e-04 -6.38678539e-05 -1.06808526e-04
      -7.46103324e-05 -5.72144309e-05 2.42024362e-05 7.42621296e-06</_></support_vectors>
  <uncompressed_sv_total>237</uncompressed_sv_total>
  <uncompressed_support_vectors>
    <_>
      240. 255. 255. 247. 97. 0. 0. 64. 194. 64. 28. 255. 241. 255. 255.
      255. 255. 255. 255. 51. 14. 227. 0. 6. 194. 211. 79. 139. 57. 103.
      124. 227. 127. 255. 255. 255. 255. 255. 243. 31. 199. 16. 147. 57.
      187. 247. 127. 30. 218. 237. 242. 243. 255. 255. 255. 255. 249.
      126. 118. 36. 2. 237. 237. 255. 240. 255. 255. 247. 225. 0. 0. 66.
      194. 196. 29. 255. 241. 239. 255. 255. 191. 255. 252. 57. 14. 195.
      0. 2. 195. 211. 104. 239. 57. 103. 60. 227. 63. 255. 255. 255.
      255. 253. 243. 31. 198. 16. 131. 41. 187. 243. 63. 30. 203. 229.
      242. 247. 255. 255. 255. 255. 249. 124. 118. 36. 18. 205. 221.
      255. 244. 255. 255. 247. 225. 0. 0. 0. 195. 198. 29. 255. 241.
      207. 63. 255. 254. 255. 207. 49. 12. 195. 0. 4. 128. 224. 249.
      255. 123. 239. 52. 227. 25. 39. 60. 225. 12. 19. 207. 56. 198. 16.
      3. 0. 16. 240. 253. 255. 127. 239. 114. 115. 155. 252. 255. 255.
      251. 72. 100. 36. 18. 192. 236. 205. 244. 255. 255. 243. 96. 64.
      0. 65. 65. 66. 29. 255. 241. 231. 159. 119. 158. 121. 199. 49. 12.
      227. 16. 10. 65. 227. 63. 1. 0. 100. 124. 227. 217. 39. 148. 208.
      255. 255. 255. 31. 231. 152. 19. 0. 187. 245. 255. 62. 0. 197.
      114. 123. 9. 240. 254. 12. 0. 72. 231. 55. 27. 205. 239. 239. 244.
      255. 255. 247. 225. 0. 0. 65. 195. 206. 29. 255. 240. 207. 63.
      255. 254. 255. 255. 55. 14. 195. 0. 0. 0. 224. 251. 255. 123. 239.
